<?xml version="1.0" encoding="ISO-8859-1"?>
<smile version="1.0" id="nhlv1" numsamples="1000" discsamples="10000">
	<nodes>
		<cpt id="AGE">
			<state id="v10_19" />
			<state id="v20_29" />
			<state id="v30_39" />
			<state id="v40_44" />
			<state id="v45_49" />
			<state id="v50_54" />
			<state id="v55_59" />
			<state id="v60_64" />
			<state id="v65_69" />
			<state id="v70_79" />
			<state id="v80_89" />
			<state id="GE90" />
			<probabilities>0.005 0.03 0.06 0.07000000000000001 0.07000000000000001 0.1 0.12 0.15 0.15 0.2 0.04 0.005</probabilities>
		</cpt>
		<cpt id="CLINICALSTAGE">
			<state id="I" />
			<state id="II1" />
			<state id="II2" />
			<state id="III" />
			<state id="IV" />
			<parents>AGE</parents>
			<probabilities>0.25 0.3 0.25 0 0.2 0.25 0.3 0.25 0 0.2 0.5 0.25 0.15 0 0.1 0.6 0.2 0.1 0 0.1 0.6 0.2 0.1 0 0.1 0.6 0.2 0.1 0 0.1 0.6 0.2 0.1 0 0.1 0.5 0.25 0.15 0 0.1 0.425 0.275 0.15 0.01 0.14 0.25 0.35 0.25 0.01 0.14 0.25 0.35 0.25 0.01 0.14 0.2 0.275 0.225 0.1 0.2</probabilities>
		</cpt>
		<cpt id="CLINICALPRESENTATION">
			<state id="NONE" />
			<state id="HEMORRHAGE" />
			<state id="PERFORATION" />
			<state id="OBSTRUCTION" />
			<probabilities>0.85 0.12 0.02 0.01</probabilities>
		</cpt>
		<cpt id="HISTOLOGICALCLASSIFICATION">
			<state id="LOW_GRADE" />
			<state id="HIGH_GRADE" />
			<parents>AGE</parents>
			<probabilities>0.4 0.6 0.4 0.6 0.6 0.4 0.7 0.3 0.6 0.4 0.6 0.4 0.6 0.4 0.4 0.6 0.4 0.6 0.3 0.7 0.3 0.7 0.3 0.7</probabilities>
		</cpt>
		<cpt id="HELICOBACTERPYLORI">
			<state id="ABSENT" />
			<state id="PRESENT" />
			<probabilities>0.15 0.85</probabilities>
		</cpt>
		<cpt id="BULKYDISEASE">
			<state id="YES" />
			<state id="NO" />
			<parents>AGE HISTOLOGICALCLASSIFICATION CLINICALSTAGE</parents>
			<probabilities>0.4 0.6 0.3 0.7 0.35 0.65 0.25 0.75 0.25 0.75 0.7 0.3 0.7 0.3 0.75 0.25 0.6 0.4 0.6 0.4 0.3 0.7 0.3 0.7 0.35 0.65 0.15 0.85 0.15 0.85 0.5 0.5 0.55 0.45 0.75 0.25 0.6 0.4 0.6 0.4 0.2 0.8 0.25 0.75 0.5 0.5 0.05 0.95 0.05 0.95 0.35 0.65 0.35 0.65 0.6 0.4 0.5 0.5 0.5 0.5 0.1 0.9 0.2 0.8 0.5 0.5 0.05 0.95 0.05 0.95 0.25 0.75 0.3 0.7 0.55 0.45 0.4 0.6 0.4 0.6 0.1 0.9 0.2 0.8 0.5 0.5 0.05 0.95 0.05 0.95 0.2 0.8 0.25 0.75 0.55 0.45 0.4 0.6 0.4 0.6 0.1 0.9 0.2 0.8 0.5 0.5 0.05 0.95 0.05 0.95 0.2 0.8 0.25 0.75 0.5 0.5 0.4 0.6 0.4 0.6 0.1 0.9 0.2 0.8 0.55 0.45 0.05 0.95 0.05 0.95 0.2 0.8 0.25 0.75 0.5 0.5 0.4 0.6 0.4 0.6 0.2 0.8 0.25 0.75 0.55 0.45 0.1 0.9 0.1 0.9 0.25 0.75 0.3 0.7 0.55 0.45 0.5 0.5 0.5 0.5 0.25 0.75 0.3 0.7 0.6 0.4 0.2 0.8 0.2 0.8 0.25 0.75 0.35 0.65 0.55 0.45 0.6 0.4 0.6 0.4 0.3 0.7 0.35 0.65 0.65 0.35 0.3 0.7 0.3 0.7 0.25 0.75 0.35 0.65 0.65 0.35 0.7 0.3 0.7 0.3 0.3 0.7 0.35 0.65 0.7 0.3 0.4 0.6 0.4 0.6 0.3 0.7 0.4 0.6 0.7 0.3 0.7 0.3 0.7 0.3 0.3 0.7 0.35 0.65 0.7 0.3 0.4 0.6 0.4 0.6 0.3 0.7 0.4 0.6 0.7 0.3 0.7 0.3 0.7 0.3</probabilities>
		</cpt>
		<decision id="SURGERY">
			<state id="NONE" />
			<state id="CURATIVE" />
			<state id="PALLIATIVE" />
			<parents>CLINICALPRESENTATION</parents>
		</decision>
		<decision id="CTRTSCHEDULE">
			<state id="NONE" />
			<state id="RadioTherapy" />
			<state id="ChemoTherapy" />
			<state id="ChemoTherapy_NEXT_RadioTherapy" />
			<parents>SURGERY</parents>
		</decision>
		<cpt id="EARLYRESULT">
			<state id="CR" />
			<state id="PR" />
			<state id="NC" />
			<state id="PD" />
			<parents>CTRTSCHEDULE SURGERY CLINICALSTAGE BULKYDISEASE HISTOLOGICALCLASSIFICATION HELICOBACTERPYLORI AGE</parents>
			<probabilities>0.7499999999999999 0.15 0.05 0.05 0.7499999999999999 0.15 0.05 0.05 0.7499999999999999 0.15 0.05 0.05 0.7499999999999999 0.15 0.05 0.05 0.75 0.15 0.05000000000000001 0.05000000000000001 0.7499999999999999 0.15 0.05 0.05 0.7499999999999999 0.15 0.05 0.05 0.7499999999999999 0.15 0.05 0.05 0.7499999999999999 0.15 0.05 0.05 0.7499999999999999 0.15 0.05 0.05 0.7499999999999999 0.15 0.05 0.05 0.7499999999999999 0.15 0.05 0.05 0 0 0.1 0.9 0 0 0.1 0.9 0 0 0.1 0.9 0 0 0.1 0.9 0 0 0.1 0.9000000000000001 0 0 0.1 0.9 0 0 0.1 0.9 0 0 0.1 0.9 0 0 0.1 0.9 0 0 0.1 0.9 0 0 0.1 0.9 0 0 0.1 0.9 0.1 0.1 0.05 0.7499999999999999 0.1 0.1 0.05 0.7499999999999999 0.1 0.1 0.05 0.7499999999999999 0.1 0.1 0.05 0.7499999999999999 0.1 0.1 0.05000000000000001 0.75 0.1 0.1 0.05 0.7499999999999999 0.1 0.1 0.05 0.7499999999999999 0.1 0.1 0.05 0.7499999999999999 0.1 0.1 0.05 0.7499999999999999 0.1 0.1 0.05 0.7499999999999999 0.1 0.1 0.05 0.7499999999999999 0.1 0.1 0.05 0.7499999999999999 0 0 0 1 0 0 0 1 0 0 0 1 0 0 0 1 0 0 0 1 0 0 0 1 0 0 0 1 0 0 0 1 0 0 0 1 0 0 0 1 0 0 0 1 0 0 0 1 0.8 0.1 0.05 0.05 0.8 0.1 0.05 0.05 0.8 0.1 0.05 0.05 0.8 0.1 0.05 0.05 0.8000000000000002 0.1 0.05000000000000001 0.05000000000000001 0.8 0.1 0.05 0.05 0.8 0.1 0.05 0.05 0.8 0.1 0.05 0.05 0.8 0.1 0.05 0.05 0.8 0.1 0.05 0.05 0.8 0.1 0.05 0.05 0.8 0.1 0.05 0.05 0 0 0.1 0.9 0 0 0.1 0.9 0 0 0.1 0.9 0 0 0.1 0.9 0 0 0.1 0.9000000000000001 0 0 0.1 0.9 0 0 0.1 0.9 0 0 0.1 0.9 0 0 0.1 0.9 0 0 0.1 0.9 0 0 0.1 0.9 0 0 0.1 0.9 0.15 0.1 0.05 0.7 0.15 0.1 0.05 0.7 0.15 0.1 0.05 0.7 0.15 0.1 0.05 0.7 0.15 0.1 0.05000000000000001 0.7000000000000001 0.15 0.1 0.05 0.7 0.15 0.1 0.05 0.7 0.15 0.1 0.05 0.7 0.15 0.1 0.05 0.7 0.15 0.1 0.05 0.7 0.15 0.1 0.05 0.7 0.15 0.1 0.05 0.7 0 0 0 1 0 0 0 1 0 0 0 1 0 0 0 1 0 0 0 1 0 0 0 1 0 0 0 1 0 0 0 1 0 0 0 1 0 0 0 1 0 0 0 1 0 0 0 1 0.1 0.15 0.1 0.6499999999999999 0.1 0.15 0.1 0.6499999999999999 0.1 0.15 0.1 0.6499999999999999 0.1 0.15 0.1 0.6499999999999999 0.1 0.15 0.1 0.65 0.1 0.15 0.1 0.6499999999999999 0.1 0.15 0.1 0.6499999999999999 0.1 0.15 0.1 0.6499999999999999 0.1 0.15 0.1 0.6499999999999999 0.1 0.15 0.1 0.6499999999999999 0.1 0.15 0.1 0.6499999999999999 0.1 0.15 0.1 0.6499999999999999 0 0 0.1 0.9 0 0 0.1 0.9 0 0 0.1 0.9 0 0 0.1 0.9 0 0 0.1 0.9000000000000001 0 0 0.1 0.9 0 0 0.1 0.9 0 0 0.1 0.9 0 0 0.1 0.9 0 0 0.1 0.9 0 0 0.1 0.9 0 0 0.1 0.9 0.05 0.05 0.05 0.85 0.05 0.05 0.05 0.85 0.05 0.05 0.05 0.85 0.05 0.05 0.05 0.85 0.05000000000000001 0.05000000000000001 0.05000000000000001 0.85 0.05 0.05 0.05 0.85 0.05 0.05 0.05 0.85 0.05 0.05 0.05 0.85 0.05 0.05 0.05 0.85 0.05 0.05 0.05 0.85 0.05 0.05 0.05 0.85 0.05 0.05 0.05 0.85 0 0 0 1 0 0 0 1 0 0 0 1 0 0 0 1 0 0 0 1 0 0 0 1 0 0 0 1 0 0 0 1 0 0 0 1 0 0 0 1 0 0 0 1 0 0 0 1 0.2 0.15 0.15 0.5 0.2 0.15 0.15 0.5 0.2 0.15 0.15 0.5 0.2 0.15 0.15 0.5 0.2 0.15 0.15 0.5 0.2 0.15 0.15 0.5 0.2 0.15 0.15 0.5 0.2 0.15 0.15 0.5 0.2 0.15 0.15 0.5 0.2 0.15 0.15 0.5 0.2 0.15 0.15 0.5 0.2 0.15 0.15 0.5 0 0 0.1 0.9 0 0 0.1 0.9 0 0 0.1 0.9 0 0 0.1 0.9 0 0 0.1 0.9000000000000001 0 0 0.1 0.9 0 0 0.1 0.9 0 0 0.1 0.9 0 0 0.1 0.9 0 0 0.1 0.9 0 0 0.1 0.9 0 0 0.1 0.9 0.1 0.05 0.05 0.8 0.1 0.05 0.05 0.8 0.1 0.05 0.05 0.8 0.1 0.05 0.05 0.8 0.1 0.05000000000000001 0.05000000000000001 0.8000000000000002 0.1 0.05 0.05 0.8 0.1 0.05 0.05 0.8 0.1 0.05 0.05 0.8 0.1 0.05 0.05 0.8 0.1 0.05 0.05 0.8 0.1 0.05 0.05 0.8 0.1 0.05 0.05 0.8 0 0 0 1 0 0 0 1 0 0 0 1 0 0 0 1 0 0 0 1 0 0 0 1 0 0 0 1 0 0 0 1 0 0 0 1 0 0 0 1 0 0 0 1 0 0 0 1 0.01 0.1 0.1 0.79 0.01 0.1 0.1 0.79 0.01 0.1 0.1 0.79 0.01 0.1 0.1 0.79 0.01 0.1 0.1 0.7900000000000002 0.01 0.1 0.1 0.79 0.01 0.1 0.1 0.79 0.01 0.1 0.1 0.79 0.01 0.1 0.1 0.79 0.01 0.1 0.1 0.79 0.01 0.1 0.1 0.79 0.01 0.1 0.1 0.79 0 0 0.1 0.9 0 0 0.1 0.9 0 0 0.1 0.9 0 0 0.1 0.9 0 0 0.1 0.9000000000000001 0 0 0.1 0.9 0 0 0.1 0.9 0 0 0.1 0.9 0 0 0.1 0.9 0 0 0.1 0.9 0 0 0.1 0.9 0 0 0.1 0.9 0.01 0.01 0.05 0.9300000000000001 0.01 0.01 0.05 0.9300000000000001 0.01 0.01 0.05 0.9300000000000001 0.01 0.01 0.05 0.9300000000000001 0.01 0.01 0.05000000000000001 0.9300000000000002 0.01 0.01 0.05 0.9300000000000001 0.01 0.01 0.05 0.9300000000000001 0.01 0.01 0.05 0.9300000000000001 0.01 0.01 0.05 0.9300000000000001 0.01 0.01 0.05 0.9300000000000001 0.01 0.01 0.05 0.9300000000000001 0.01 0.01 0.05 0.9300000000000001 0 0 0 1 0 0 0 1 0 0 0 1 0 0 0 1 0 0 0 1 0 0 0 1 0 0 0 1 0 0 0 1 0 0 0 1 0 0 0 1 0 0 0 1 0 0 0 1 0.02 0.1 0.15 0.73 0.02 0.1 0.15 0.73 0.02 0.1 0.15 0.73 0.02 0.1 0.15 0.73 0.02 0.1 0.15 0.73 0.02 0.1 0.15 0.73 0.02 0.1 0.15 0.73 0.02 0.1 0.15 0.73 0.02 0.1 0.15 0.73 0.02 0.1 0.15 0.73 0.02 0.1 0.15 0.73 0.02 0.1 0.15 0.73 0 0 0.1 0.9 0 0 0.1 0.9 0 0 0.1 0.9 0 0 0.1 0.9 0 0 0.1 0.9000000000000001 0 0 0.1 0.9 0 0 0.1 0.9 0 0 0.1 0.9 0 0 0.1 0.9 0 0 0.1 0.9 0 0 0.1 0.9 0 0 0.1 0.9 0.03 0.05 0.05 0.87 0.03 0.05 0.05 0.87 0.03 0.05 0.05 0.87 0.03 0.05 0.05 0.87 0.03 0.05000000000000001 0.05000000000000001 0.8700000000000001 0.03 0.05 0.05 0.87 0.03 0.05 0.05 0.87 0.03 0.05 0.05 0.87 0.03 0.05 0.05 0.87 0.03 0.05 0.05 0.87 0.03 0.05 0.05 0.87 0.03 0.05 0.05 0.87 0 0 0 1 0 0 0 1 0 0 0 1 0 0 0 1 0 0 0 1 0 0 0 1 0 0 0 1 0 0 0 1 0 0 0 1 0 0 0 1 0 0 0 1 0 0 0 1 0 0.1 0.1 0.8 0 0.1 0.1 0.8 0 0.1 0.1 0.8 0 0.1 0.1 0.8 0 0.1 0.1 0.8000000000000002 0 0.1 0.1 0.8 0 0.1 0.1 0.8 0 0.1 0.1 0.8 0 0.1 0.1 0.8 0 0.1 0.1 0.8 0 0.1 0.1 0.8 0 0.1 0.1 0.8 0 0 0.1 0.9 0 0 0.1 0.9 0 0 0.1 0.9 0 0 0.1 0.9 0 0 0.1 0.9000000000000001 0 0 0.1 0.9 0 0 0.1 0.9 0 0 0.1 0.9 0 0 0.1 0.9 0 0 0.1 0.9 0 0 0.1 0.9 0 0 0.1 0.9 0 0.02 0.04 0.94 0 0.02 0.04 0.94 0 0.02 0.04 0.94 0 0.02 0.04 0.94 0 0.02 0.04 0.9400000000000001 0 0.02 0.04 0.94 0 0.02 0.04 0.94 0 0.02 0.04 0.94 0 0.02 0.04 0.94 0 0.02 0.04 0.94 0 0.02 0.04 0.94 0 0.02 0.04 0.94 0 0 0 1 0 0 0 1 0 0 0 1 0 0 0 1 0 0 0 1 0 0 0 1 0 0 0 1 0 0 0 1 0 0 0 1 0 0 0 1 0 0 0 1 0 0 0 1 0 0.1 0.1 0.8 0 0.1 0.1 0.8 0 0.1 0.1 0.8 0 0.1 0.1 0.8 0 0.1 0.1 0.8000000000000002 0 0.1 0.1 0.8 0 0.1 0.1 0.8 0 0.1 0.1 0.8 0 0.1 0.1 0.8 0 0.1 0.1 0.8 0 0.1 0.1 0.8 0 0.1 0.1 0.8 0 0 0.1 0.9 0 0 0.1 0.9 0 0 0.1 0.9 0 0 0.1 0.9 0 0 0.1 0.9000000000000001 0 0 0.1 0.9 0 0 0.1 0.9 0 0 0.1 0.9 0 0 0.1 0.9 0 0 0.1 0.9 0 0 0.1 0.9 0 0 0.1 0.9 0 0.02 0.04 0.94 0 0.02 0.04 0.94 0 0.02 0.04 0.94 0 0.02 0.04 0.94 0 0.02 0.04 0.9400000000000001 0 0.02 0.04 0.94 0 0.02 0.04 0.94 0 0.02 0.04 0.94 0 0.02 0.04 0.94 0 0.02 0.04 0.94 0 0.02 0.04 0.94 0 0.02 0.04 0.94 0 0 0 1 0 0 0 1 0 0 0 1 0 0 0 1 0 0 0 1 0 0 0 1 0 0 0 1 0 0 0 1 0 0 0 1 0 0 0 1 0 0 0 1 0 0 0 1 0 0.1 0.1 0.8 0 0.1 0.1 0.8 0 0.1 0.1 0.8 0 0.1 0.1 0.8 0 0.1 0.1 0.8000000000000002 0 0.1 0.1 0.8 0 0.1 0.1 0.8 0 0.1 0.1 0.8 0 0.1 0.1 0.8 0 0.1 0.1 0.8 0 0.1 0.1 0.8 0 0.1 0.1 0.8 0 0 0.1 0.9 0 0 0.1 0.9 0 0 0.1 0.9 0 0 0.1 0.9 0 0 0.1 0.9000000000000001 0 0 0.1 0.9 0 0 0.1 0.9 0 0 0.1 0.9 0 0 0.1 0.9 0 0 0.1 0.9 0 0 0.1 0.9 0 0 0.1 0.9 0 0.02 0.04 0.94 0 0.02 0.04 0.94 0 0.02 0.04 0.94 0 0.02 0.04 0.94 0 0.02 0.04 0.9400000000000001 0 0.02 0.04 0.94 0 0.02 0.04 0.94 0 0.02 0.04 0.94 0 0.02 0.04 0.94 0 0.02 0.04 0.94 0 0.02 0.04 0.94 0 0.02 0.04 0.94 0 0 0 1 0 0 0 1 0 0 0 1 0 0 0 1 0 0 0 1 0 0 0 1 0 0 0 1 0 0 0 1 0 0 0 1 0 0 0 1 0 0 0 1 0 0 0 1 0 0.1 0.1 0.8 0 0.1 0.1 0.8 0 0.1 0.1 0.8 0 0.1 0.1 0.8 0 0.1 0.1 0.8000000000000002 0 0.1 0.1 0.8 0 0.1 0.1 0.8 0 0.1 0.1 0.8 0 0.1 0.1 0.8 0 0.1 0.1 0.8 0 0.1 0.1 0.8 0 0.1 0.1 0.8 0 0 0.1 0.9 0 0 0.1 0.9 0 0 0.1 0.9 0 0 0.1 0.9 0 0 0.1 0.9000000000000001 0 0 0.1 0.9 0 0 0.1 0.9 0 0 0.1 0.9 0 0 0.1 0.9 0 0 0.1 0.9 0 0 0.1 0.9 0 0 0.1 0.9 0 0.02 0.04 0.94 0 0.02 0.04 0.94 0 0.02 0.04 0.94 0 0.02 0.04 0.94 0 0.02 0.04 0.9400000000000001 0 0.02 0.04 0.94 0 0.02 0.04 0.94 0 0.02 0.04 0.94 0 0.02 0.04 0.94 0 0.02 0.04 0.94 0 0.02 0.04 0.94 0 0.02 0.04 0.94 0 0 0 1 0 0 0 1 0 0 0 1 0 0 0 1 0 0 0 1 0 0 0 1 0 0 0 1 0 0 0 1 0 0 0 1 0 0 0 1 0 0 0 1 0 0 0 1 0.9 0.05 0 0.05 0.9 0.05 0 0.05 0.9 0.05 0 0.05 0.9 0.05 0 0.05 0.9000000000000001 0.05000000000000001 0 0.05000000000000001 0.9 0.05 0 0.05 0.9 0.05 0 0.05 0.9 0.05 0 0.05 0.9 0.05 0 0.05 0.9 0.05 0 0.05 0.9 0.05 0 0.05 0.9 0.05 0 0.05 0.9 0.05 0 0.05 0.9 0.05 0 0.05 0.9 0.05 0 0.05 0.9 0.05 0 0.05 0.9000000000000001 0.05000000000000001 0 0.05000000000000001 0.9 0.05 0 0.05 0.9 0.05 0 0.05 0.9 0.05 0 0.05 0.9 0.05 0 0.05 0.9 0.05 0 0.05 0.9 0.05 0 0.05 0.9 0.05 0 0.05 0.6 0.2 0 0.2 0.6 0.2 0 0.2 0.6 0.2 0 0.2 0.6 0.2 0 0.2 0.6000000000000001 0.2 0 0.2 0.6 0.2 0 0.2 0.6 0.2 0 0.2 0.6 0.2 0 0.2 0.6 0.2 0 0.2 0.6 0.2 0 0.2 0.6 0.2 0 0.2 0.6 0.2 0 0.2 0.6 0.2 0 0.2 0.6 0.2 0 0.2 0.6 0.2 0 0.2 0.6 0.2 0 0.2 0.6000000000000001 0.2 0 0.2 0.6 0.2 0 0.2 0.6 0.2 0 0.2 0.6 0.2 0 0.2 0.6 0.2 0 0.2 0.6 0.2 0 0.2 0.6 0.2 0 0.2 0.6 0.2 0 0.2 0.9 0.05 0 0.05 0.9 0.05 0 0.05 0.9 0.05 0 0.05 0.9 0.05 0 0.05 0.9000000000000001 0.05000000000000001 0 0.05000000000000001 0.9 0.05 0 0.05 0.9 0.05 0 0.05 0.9 0.05 0 0.05 0.9 0.05 0 0.05 0.9 0.05 0 0.05 0.9 0.05 0 0.05 0.9 0.05 0 0.05 0.9 0.05 0 0.05 0.9 0.05 0 0.05 0.9 0.05 0 0.05 0.9 0.05 0 0.05 0.9000000000000001 0.05000000000000001 0 0.05000000000000001 0.9 0.05 0 0.05 0.9 0.05 0 0.05 0.9 0.05 0 0.05 0.9 0.05 0 0.05 0.9 0.05 0 0.05 0.9 0.05 0 0.05 0.9 0.05 0 0.05 0.7499999999999999 0.15 0 0.1 0.7499999999999999 0.15 0 0.1 0.7499999999999999 0.15 0 0.1 0.7499999999999999 0.15 0 0.1 0.75 0.15 0 0.1 0.7499999999999999 0.15 0 0.1 0.7499999999999999 0.15 0 0.1 0.7499999999999999 0.15 0 0.1 0.7499999999999999 0.15 0 0.1 0.7499999999999999 0.15 0 0.1 0.7499999999999999 0.15 0 0.1 0.7499999999999999 0.15 0 0.1 0.7499999999999999 0.15 0 0.1 0.7499999999999999 0.15 0 0.1 0.7499999999999999 0.15 0 0.1 0.7499999999999999 0.15 0 0.1 0.75 0.15 0 0.1 0.7499999999999999 0.15 0 0.1 0.7499999999999999 0.15 0 0.1 0.7499999999999999 0.15 0 0.1 0.7499999999999999 0.15 0 0.1 0.7499999999999999 0.15 0 0.1 0.7499999999999999 0.15 0 0.1 0.7499999999999999 0.15 0 0.1 0.7 0.2 0 0.1 0.7 0.2 0 0.1 0.7 0.2 0 0.1 0.7 0.2 0 0.1 0.7000000000000001 0.2 0 0.1 0.7 0.2 0 0.1 0.7 0.2 0 0.1 0.7 0.2 0 0.1 0.7 0.2 0 0.1 0.7 0.2 0 0.1 0.7 0.2 0 0.1 0.7 0.2 0 0.1 0.7 0.2 0 0.1 0.7 0.2 0 0.1 0.7 0.2 0 0.1 0.7 0.2 0 0.1 0.7000000000000001 0.2 0 0.1 0.7 0.2 0 0.1 0.7 0.2 0 0.1 0.7 0.2 0 0.1 0.7 0.2 0 0.1 0.7 0.2 0 0.1 0.7 0.2 0 0.1 0.7 0.2 0 0.1 0.5499999999999999 0.15 0 0.3 0.5499999999999999 0.15 0 0.3 0.5499999999999999 0.15 0 0.3 0.5499999999999999 0.15 0 0.3 0.55 0.15 0 0.3 0.5499999999999999 0.15 0 0.3 0.5499999999999999 0.15 0 0.3 0.5499999999999999 0.15 0 0.3 0.5499999999999999 0.15 0 0.3 0.5499999999999999 0.15 0 0.3 0.5499999999999999 0.15 0 0.3 0.5499999999999999 0.15 0 0.3 0.5499999999999999 0.15 0 0.3 0.5499999999999999 0.15 0 0.3 0.5499999999999999 0.15 0 0.3 0.5499999999999999 0.15 0 0.3 0.55 0.15 0 0.3 0.5499999999999999 0.15 0 0.3 0.5499999999999999 0.15 0 0.3 0.5499999999999999 0.15 0 0.3 0.5499999999999999 0.15 0 0.3 0.5499999999999999 0.15 0 0.3 0.5499999999999999 0.15 0 0.3 0.5499999999999999 0.15 0 0.3 0.7 0.2 0 0.1 0.7 0.2 0 0.1 0.7 0.2 0 0.1 0.7 0.2 0 0.1 0.7000000000000001 0.2 0 0.1 0.7 0.2 0 0.1 0.7 0.2 0 0.1 0.7 0.2 0 0.1 0.7 0.2 0 0.1 0.7 0.2 0 0.1 0.7 0.2 0 0.1 0.7 0.2 0 0.1 0.7 0.2 0 0.1 0.7 0.2 0 0.1 0.7 0.2 0 0.1 0.7 0.2 0 0.1 0.7000000000000001 0.2 0 0.1 0.7 0.2 0 0.1 0.7 0.2 0 0.1 0.7 0.2 0 0.1 0.7 0.2 0 0.1 0.7 0.2 0 0.1 0.7 0.2 0 0.1 0.7 0.2 0 0.1 0.6499999999999999 0.15 0 0.2 0.6499999999999999 0.15 0 0.2 0.6499999999999999 0.15 0 0.2 0.6499999999999999 0.15 0 0.2 0.65 0.15 0 0.2 0.6499999999999999 0.15 0 0.2 0.6499999999999999 0.15 0 0.2 0.6499999999999999 0.15 0 0.2 0.6499999999999999 0.15 0 0.2 0.6499999999999999 0.15 0 0.2 0.6499999999999999 0.15 0 0.2 0.6499999999999999 0.15 0 0.2 0.6499999999999999 0.15 0 0.2 0.6499999999999999 0.15 0 0.2 0.6499999999999999 0.15 0 0.2 0.6499999999999999 0.15 0 0.2 0.65 0.15 0 0.2 0.6499999999999999 0.15 0 0.2 0.6499999999999999 0.15 0 0.2 0.6499999999999999 0.15 0 0.2 0.6499999999999999 0.15 0 0.2 0.6499999999999999 0.15 0 0.2 0.6499999999999999 0.15 0 0.2 0.6499999999999999 0.15 0 0.2 0.4 0.25 0 0.35 0.4 0.25 0 0.35 0.4 0.25 0 0.35 0.4 0.25 0 0.35 0.4000000000000001 0.25 0 0.35 0.4 0.25 0 0.35 0.4 0.25 0 0.35 0.4 0.25 0 0.35 0.4 0.25 0 0.35 0.4 0.25 0 0.35 0.4 0.25 0 0.35 0.4 0.25 0 0.35 0.4 0.25 0 0.35 0.4 0.25 0 0.35 0.4 0.25 0 0.35 0.4 0.25 0 0.35 0.4000000000000001 0.25 0 0.35 0.4 0.25 0 0.35 0.4 0.25 0 0.35 0.4 0.25 0 0.35 0.4 0.25 0 0.35 0.4 0.25 0 0.35 0.4 0.25 0 0.35 0.4 0.25 0 0.35 0.35 0.3 0 0.35 0.35 0.3 0 0.35 0.35 0.3 0 0.35 0.35 0.3 0 0.35 0.35 0.3 0 0.35 0.35 0.3 0 0.35 0.35 0.3 0 0.35 0.35 0.3 0 0.35 0.35 0.3 0 0.35 0.35 0.3 0 0.35 0.35 0.3 0 0.35 0.35 0.3 0 0.35 0.35 0.3 0 0.35 0.35 0.3 0 0.35 0.35 0.3 0 0.35 0.35 0.3 0 0.35 0.35 0.3 0 0.35 0.35 0.3 0 0.35 0.35 0.3 0 0.35 0.35 0.3 0 0.35 0.35 0.3 0 0.35 0.35 0.3 0 0.35 0.35 0.3 0 0.35 0.35 0.3 0 0.35 0.5 0.25 0 0.25 0.5 0.25 0 0.25 0.5 0.25 0 0.25 0.5 0.25 0 0.25 0.5 0.25 0 0.25 0.5 0.25 0 0.25 0.5 0.25 0 0.25 0.5 0.25 0 0.25 0.5 0.25 0 0.25 0.5 0.25 0 0.25 0.5 0.25 0 0.25 0.5 0.25 0 0.25 0.5 0.25 0 0.25 0.5 0.25 0 0.25 0.5 0.25 0 0.25 0.5 0.25 0 0.25 0.5 0.25 0 0.25 0.5 0.25 0 0.25 0.5 0.25 0 0.25 0.5 0.25 0 0.25 0.5 0.25 0 0.25 0.5 0.25 0 0.25 0.5 0.25 0 0.25 0.5 0.25 0 0.25 0.4 0.3 0 0.3 0.4 0.3 0 0.3 0.4 0.3 0 0.3 0.4 0.3 0 0.3 0.4000000000000001 0.3 0 0.3 0.4 0.3 0 0.3 0.4 0.3 0 0.3 0.4 0.3 0 0.3 0.4 0.3 0 0.3 0.4 0.3 0 0.3 0.4 0.3 0 0.3 0.4 0.3 0 0.3 0.4 0.3 0 0.3 0.4 0.3 0 0.3 0.4 0.3 0 0.3 0.4 0.3 0 0.3 0.4000000000000001 0.3 0 0.3 0.4 0.3 0 0.3 0.4 0.3 0 0.3 0.4 0.3 0 0.3 0.4 0.3 0 0.3 0.4 0.3 0 0.3 0.4 0.3 0 0.3 0.4 0.3 0 0.3 0 0.25 0 0.7499999999999999 0 0.25 0 0.7499999999999999 0 0.25 0 0.7499999999999999 0 0.25 0 0.7499999999999999 0 0.25 0 0.75 0 0.25 0 0.7499999999999999 0 0.25 0 0.7499999999999999 0 0.25 0 0.7499999999999999 0 0.25 0 0.7499999999999999 0 0.25 0 0.7499999999999999 0 0.25 0 0.7499999999999999 0 0.25 0 0.7499999999999999 0 0.25 0 0.7499999999999999 0 0.25 0 0.7499999999999999 0 0.25 0 0.7499999999999999 0 0.25 0 0.7499999999999999 0 0.25 0 0.75 0 0.25 0 0.7499999999999999 0 0.25 0 0.7499999999999999 0 0.25 0 0.7499999999999999 0 0.25 0 0.7499999999999999 0 0.25 0 0.7499999999999999 0 0.25 0 0.7499999999999999 0 0.25 0 0.7499999999999999 0 0.2 0 0.8 0 0.2 0 0.8 0 0.2 0 0.8 0 0.2 0 0.8 0 0.2 0 0.8000000000000002 0 0.2 0 0.8 0 0.2 0 0.8 0 0.2 0 0.8 0 0.2 0 0.8 0 0.2 0 0.8 0 0.2 0 0.8 0 0.2 0 0.8 0 0.2 0 0.8 0 0.2 0 0.8 0 0.2 0 0.8 0 0.2 0 0.8 0 0.2 0 0.8000000000000002 0 0.2 0 0.8 0 0.2 0 0.8 0 0.2 0 0.8 0 0.2 0 0.8 0 0.2 0 0.8 0 0.2 0 0.8 0 0.2 0 0.8 0 0.3 0 0.7 0 0.3 0 0.7 0 0.3 0 0.7 0 0.3 0 0.7 0 0.3 0 0.7000000000000001 0 0.3 0 0.7 0 0.3 0 0.7 0 0.3 0 0.7 0 0.3 0 0.7 0 0.3 0 0.7 0 0.3 0 0.7 0 0.3 0 0.7 0 0.3 0 0.7 0 0.3 0 0.7 0 0.3 0 0.7 0 0.3 0 0.7 0 0.3 0 0.7000000000000001 0 0.3 0 0.7 0 0.3 0 0.7 0 0.3 0 0.7 0 0.3 0 0.7 0 0.3 0 0.7 0 0.3 0 0.7 0 0.3 0 0.7 0 0.4 0 0.6 0 0.4 0 0.6 0 0.4 0 0.6 0 0.4 0 0.6 0 0.4000000000000001 0 0.6000000000000001 0 0.4 0 0.6 0 0.4 0 0.6 0 0.4 0 0.6 0 0.4 0 0.6 0 0.4 0 0.6 0 0.4 0 0.6 0 0.4 0 0.6 0 0.4 0 0.6 0 0.4 0 0.6 0 0.4 0 0.6 0 0.4 0 0.6 0 0.4000000000000001 0 0.6000000000000001 0 0.4 0 0.6 0 0.4 0 0.6 0 0.4 0 0.6 0 0.4 0 0.6 0 0.4 0 0.6 0 0.4 0 0.6 0 0.4 0 0.6 0 0.25 0 0.7499999999999999 0 0.25 0 0.7499999999999999 0 0.25 0 0.7499999999999999 0 0.25 0 0.7499999999999999 0 0.25 0 0.75 0 0.25 0 0.7499999999999999 0 0.25 0 0.7499999999999999 0 0.25 0 0.7499999999999999 0 0.25 0 0.7499999999999999 0 0.25 0 0.7499999999999999 0 0.25 0 0.7499999999999999 0 0.25 0 0.7499999999999999 0 0.25 0 0.7499999999999999 0 0.25 0 0.7499999999999999 0 0.25 0 0.7499999999999999 0 0.25 0 0.7499999999999999 0 0.25 0 0.75 0 0.25 0 0.7499999999999999 0 0.25 0 0.7499999999999999 0 0.25 0 0.7499999999999999 0 0.25 0 0.7499999999999999 0 0.25 0 0.7499999999999999 0 0.25 0 0.7499999999999999 0 0.25 0 0.7499999999999999 0 0.2 0 0.8 0 0.2 0 0.8 0 0.2 0 0.8 0 0.2 0 0.8 0 0.2 0 0.8000000000000002 0 0.2 0 0.8 0 0.2 0 0.8 0 0.2 0 0.8 0 0.2 0 0.8 0 0.2 0 0.8 0 0.2 0 0.8 0 0.2 0 0.8 0 0.2 0 0.8 0 0.2 0 0.8 0 0.2 0 0.8 0 0.2 0 0.8 0 0.2 0 0.8000000000000002 0 0.2 0 0.8 0 0.2 0 0.8 0 0.2 0 0.8 0 0.2 0 0.8 0 0.2 0 0.8 0 0.2 0 0.8 0 0.2 0 0.8 0 0.3 0 0.7 0 0.3 0 0.7 0 0.3 0 0.7 0 0.3 0 0.7 0 0.3 0 0.7000000000000001 0 0.3 0 0.7 0 0.3 0 0.7 0 0.3 0 0.7 0 0.3 0 0.7 0 0.3 0 0.7 0 0.3 0 0.7 0 0.3 0 0.7 0 0.3 0 0.7 0 0.3 0 0.7 0 0.3 0 0.7 0 0.3 0 0.7 0 0.3 0 0.7000000000000001 0 0.3 0 0.7 0 0.3 0 0.7 0 0.3 0 0.7 0 0.3 0 0.7 0 0.3 0 0.7 0 0.3 0 0.7 0 0.3 0 0.7 0 0.4 0 0.6 0 0.4 0 0.6 0 0.4 0 0.6 0 0.4 0 0.6 0 0.4000000000000001 0 0.6000000000000001 0 0.4 0 0.6 0 0.4 0 0.6 0 0.4 0 0.6 0 0.4 0 0.6 0 0.4 0 0.6 0 0.4 0 0.6 0 0.4 0 0.6 0 0.4 0 0.6 0 0.4 0 0.6 0 0.4 0 0.6 0 0.4 0 0.6 0 0.4000000000000001 0 0.6000000000000001 0 0.4 0 0.6 0 0.4 0 0.6 0 0.4 0 0.6 0 0.4 0 0.6 0 0.4 0 0.6 0 0.4 0 0.6 0 0.4 0 0.6 0 0 0 1 0 0 0 1 0 0 0 1 0 0 0 1 0 0 0 1 0 0 0 1 0 0 0 1 0 0 0 1 0 0 0 1 0 0 0 1 0 0 0 1 0 0 0 1 0 0 0 1 0 0 0 1 0 0 0 1 0 0 0 1 0 0 0 1 0 0 0 1 0 0 0 1 0 0 0 1 0 0 0 1 0 0 0 1 0 0 0 1 0 0 0 1 0 0 0 1 0 0 0 1 0 0 0 1 0 0 0 1 0 0 0 1 0 0 0 1 0 0 0 1 0 0 0 1 0 0 0 1 0 0 0 1 0 0 0 1 0 0 0 1 0 0 0 1 0 0 0 1 0 0 0 1 0 0 0 1 0 0 0 1 0 0 0 1 0 0 0 1 0 0 0 1 0 0 0 1 0 0 0 1 0 0 0 1 0 0 0 1 0 0 0 1 0 0 0 1 0 0 0 1 0 0 0 1 0 0 0 1 0 0 0 1 0 0 0 1 0 0 0 1 0 0 0 1 0 0 0 1 0 0 0 1 0 0 0 1 0 0 0 1 0 0 0 1 0 0 0 1 0 0 0 1 0 0 0 1 0 0 0 1 0 0 0 1 0 0 0 1 0 0 0 1 0 0 0 1 0 0 0 1 0 0 0 1 0 0 0 1 0 0 0 1 0 0 0 1 0 0 0 1 0 0 0 1 0 0 0 1 0 0 0 1 0 0 0 1 0 0 0 1 0 0 0 1 0 0 0 1 0 0 0 1 0 0 0 1 0 0 0 1 0 0 0 1 0 0 0 1 0 0 0 1 0 0 0 1 0 0 0 1 0 0 0 1 0 0 0 1 0 0 0 1 0 0 0 1 0 0 0 1 0 0 0 1 0 0 0 1 0 0 0 1 0 0 0 1 0 0 0 1 0 0 0 1 0 0 0 1 0 0 0 1 0 0 0 1 0 0 0 1 0 0 0 1 0 0 0 1 0 0 0 1 0 0 0 1 0 0 0 1 0 0 0 1 0 0 0 1 0 0 0 1 0 0 0 1 0 0 0 1 0 0 0 1 0 0 0 1 0 0 0 1 0 0 0 1 0 0 0 1 0 0 0 1 0 0 0 1 0 0 0 1 0 0 0 1 0 0 0 1 0 0 0 1 0 0 0 1 0 0 0 1 0 0 0 1 0 0 0 1 0 0 0 1 0 0 0 1 0 0 0 1 0 0 0 1 0 0 0 1 0 0 0 1 0 0 0 1 0 0 0 1 0 0 0 1 0 0 0 1 0 0 0 1 0 0 0 1 0 0 0 1 0 0 0 1 0 0 0 1 0 0 0 1 0 0 0 1 0 0 0 1 0 0 0 1 0 0 0 1 0 0 0 1 0 0 0 1 0 0 0 1 0 0 0 1 0 0 0 1 0 0 0 1 0 0 0 1 0 0 0 1 0 0 0 1 0 0 0 1 0 0 0 1 0 0 0 1 0 0 0 1 0 0 0 1 0 0 0 1 0 0 0 1 0 0 0 1 0 0 0 1 0 0 0 1 0 0 0 1 0 0 0 1 0 0 0 1 0 0 0 1 0 0 0 1 0 0 0 1 0 0 0 1 0 0 0 1 0 0 0 1 0 0 0 1 0 0 0 1 0 0 0 1 0 0 0 1 0 0 0 1 0 0 0 1 0 0 0 1 0 0 0 1 0 0 0 1 0 0 0 1 0 0 0 1 0 0 0 1 0 0 0 1 0 0 0 1 0 0 0 1 0 0 0 1 0 0 0 1 0 0 0 1 0 0 0 1 0 0 0 1 0 0 0 1 0 0 0 1 0 0 0 1 0 0 0 1 0 0 0 1 0 0 0 1 0 0 0 1 0 0 0 1 0 0 0 1 0 0 0 1 0 0 0 1 0 0 0 1 0 0 0 1 0 0 0 1 0 0 0 1 0 0 0 1 0 0 0 1 0 0 0 1 0 0 0 1 0 0 0 1 0 0 0 1 0 0 0 1 0 0 0 1 0 0 0 1 0 0 0 1 0 0 0 1 0 0 0 1 0 0 0 1 0 0 0 1 0 0 0 1 0 0 0 1 0 0 0 1 0 0 0 1 0 0 0 1 0 0 0 1 0 0 0 1 0 0 0 1 0 0 0 1 0 0 0 1 0 0 0 1 0 0 0 1 0 0 0 1 0 0 0 1 0 0 0 1 0 0 0 1 0 0 0 1 0 0 0 1 0 0 0 1 0 0 0 1 0 0 0 1 0 0 0 1 0 0 0 1 0 0 0 1 0 0 0 1 0 0 0 1 0 0 0 1 0 0 0 1 0 0 0 1 0 0 0 1 0 0 0 1 0 0 0 1 0 0 0 1 0 0 0 1 0 0 0 1 0 0 0 1 0 0 0 1 0 0 0 1 0 0 0 1 0 0 0 1 0 0 0 1 0 0 0 1 0 0 0 1 0 0 0 1 0 0 0 1 0 0 0 1 0 0 0 1 0 0 0 1 0 0 0 1 0 0 0 1 0 0 0 1 0 0 0 1 0 0 0 1 0 0 0 1 0 0 0 1 0 0 0 1 0 0 0 1 0 0 0 1 0 0 0 1 0 0 0 1 0 0 0 1 0 0 0 1 0 0 0 1 0 0 0 1 0 0 0 1 0 0 0 1 0 0 0 1 0 0 0 1 0 0 0 1 0 0 0 1 0 0 0 1 0 0 0 1 0 0 0 1 0 0 0 1 0 0 0 1 0 0 0 1 0 0 0 1 0 0 0 1 0 0 0 1 0 0 0 1 0 0 0 1 0 0 0 1 0 0 0 1 0 0 0 1 0 0 0 1 0 0 0 1 0 0 0 1 0 0 0 1 0 0 0 1 0 0 0 1 0 0 0 1 0 0 0 1 0 0 0 1 0 0 0 1 0 0 0 1 0 0 0 1 0 0 0 1 0 0 0 1 0 0 0 1 0 0 0 1 0 0 0 1 0 0 0 1 0 0 0 1 0 0 0 1 0 0 0 1 0 0 0 1 0 0 0 1 0 0 0 1 0 0 0 1 0 0 0 1 0 0 0 1 0 0 0 1 0 0 0 1 0 0 0 1 0 0 0 1 0 0 0 1 0 0 0 1 0 0 0 1 0 0 0 1 0 0 0 1 0 0 0 1 0 0 0 1 0 0 0 1 0 0 0 1 0 0 0 1 0 0 0 1 0 0 0 1 0 0 0 1 0 0 0 1 0 0 0 1 0 0 0 1 0 0 0 1 0 0 0 1 0 0 0 1 0 0 0 1 0 0 0 1 0 0 0 1 0 0 0 1 0 0 0 1 0 0 0 1 0 0 0 1 0 0 0 1 0 0 0 1 0 0 0 1 0 0 0 1 0 0 0 1 0 0 0 1 0 0 0 1 0 0 0 1 0 0 0 1 0 0 0 1 0 0 0 1 0 0 0 1 0 0 0 1 0 0 0 1 0 0 0 1 0 0 0 1 0 0 0 1 0 0 0 1 0 0 0 1 0 0 0 1 0 0 0 1 0 0 0 1 0 0 0 1 0 0 0 1 0 0 0 1 0 0 0 1 0 0 0 1 0 0 0 1 0 0 0 1 0 0 0 1 0 0 0 1 0 0 0 1 0 0 0 1 0 0 0 1 0 0 0 1 0 0 0 1 0 0 0 1 0 0 0 1 0 0 0 1 0 0 0 1 0 0 0 1 0 0 0 1 0 0 0 1 0 0 0 1 0 0 0 1 0 0 0 1 0 0 0 1 0 0 0 1 0 0 0 1 0 0 0 1 0 0 0 1 0 0 0 1 0 0 0 1 0 0 0 1 0 0 0 1 0 0 0 1 0 0 0 1 0 0 0 1 0 0 0 1 0 0 0 1 0 0 0 1 0 0 0 1 0 0 0 1 0 0 0 1 0 0 0 1 0 0 0 1 0 0 0 1 0 0 0 1 0 0 0 1 0 0 0 1 0 0 0 1 0 0 0 1 0 0 0 1 0 0 0 1 0 0 0 1 0 0 0 1 0 0 0 1 0 0 0 1 0 0 0 1 0 0 0 1 0 0 0 1 0 0 0 1 0 0 0 1 0 0 0 1 0 0 0 1 0 0 0 1 0 0 0 1 0 0 0 1 0 0 0 1 0 0 0 1 0 0 0 1 0 0 0 1 0 0 0 1 0 0 0 1 0 0 0 1 0 0 0 1 0 0 0 1 0 0 0 1 0 0 0 1 0 0 0 1 0 0 0 1 0 0 0 1 0 0 0 1 0 0 0 1 0 0 0 1 0 0 0 1 0 0 0 1 0 0 0 1 0 0 0 1 0 0 0 1 0 0 0 1 0.95 0.02 0.02 0.009999999999999999 0.95 0.02 0.02 0.009999999999999999 0.95 0.02 0.02 0.009999999999999999 0.95 0.02 0.02 0.01 0.95 0.02 0.02 0.01 0.95 0.02 0.02 0.01 0.95 0.02 0.02 0.01 0.95 0.02 0.02 0.01 0.95 0.02 0.02 0.01 0.95 0.02 0.02 0.01 0.9499999999999998 0.02 0.02 0.009999999999999999 0.95 0.02 0.02 0.01 0.9 0.02 0.03 0.05 0.9 0.02 0.03 0.05 0.9 0.02 0.03 0.05 0.9 0.02 0.03 0.05 0.9 0.02 0.03 0.05 0.9 0.02 0.03 0.05 0.9 0.02 0.03 0.05 0.9 0.02 0.03 0.05 0.8999999999999999 0.02 0.03 0.05 0.8999999999999999 0.02 0.03 0.05 0.9 0.02 0.03 0.05 0.8999999999999999 0.02 0.03 0.05 0.6 0.1 0.1 0.2 0.6 0.1 0.1 0.2 0.6 0.1 0.1 0.2 0.6 0.1 0.1 0.2 0.6 0.1 0.1 0.2 0.6 0.1 0.1 0.2 0.6 0.1 0.1 0.2 0.6 0.1 0.1 0.2 0.6 0.1 0.1 0.2 0.6 0.1 0.1 0.2 0.6 0.1 0.1 0.2 0.5999999999999999 0.1 0.1 0.2 0.6 0.1 0.1 0.2 0.6 0.1 0.1 0.2 0.6 0.1 0.1 0.2 0.6 0.1 0.1 0.2 0.6 0.1 0.1 0.2 0.6 0.1 0.1 0.2 0.6 0.1 0.1 0.2 0.6 0.1 0.1 0.2 0.6 0.1 0.1 0.2 0.6 0.1 0.1 0.2 0.6 0.1 0.1 0.2 0.5999999999999999 0.1 0.1 0.2 0.99 0.009999999999999999 0 0 0.99 0.009999999999999999 0 0 0.99 0.009999999999999999 0 0 0.99 0.01 0 0 0.99 0.01 0 0 0.99 0.01 0 0 0.99 0.01 0 0 0.99 0.01 0 0 0.99 0.01 0 0 0.99 0.01 0 0 0.99 0.009999999999999999 0 0 0.9899999999999999 0.01 0 0 0.95 0.02 0.02 0.009999999999999999 0.95 0.02 0.02 0.009999999999999999 0.95 0.02 0.02 0.009999999999999999 0.95 0.02 0.02 0.01 0.95 0.02 0.02 0.01 0.95 0.02 0.02 0.01 0.95 0.02 0.02 0.01 0.95 0.02 0.02 0.01 0.95 0.02 0.02 0.01 0.95 0.02 0.02 0.01 0.9499999999999998 0.02 0.02 0.009999999999999999 0.95 0.02 0.02 0.01 0.85 0.05 0.05 0.05 0.85 0.05 0.05 0.05 0.85 0.05 0.05 0.05 0.85 0.05 0.05 0.05 0.85 0.05 0.05 0.05 0.85 0.05 0.05 0.05 0.85 0.05 0.05 0.05 0.85 0.05 0.05 0.05 0.85 0.05 0.05 0.05 0.85 0.05 0.05 0.05 0.8499999999999999 0.05 0.05 0.05 0.8499999999999999 0.05 0.05 0.05 0.85 0.05 0.05 0.05 0.85 0.05 0.05 0.05 0.85 0.05 0.05 0.05 0.85 0.05 0.05 0.05 0.85 0.05 0.05 0.05 0.85 0.05 0.05 0.05 0.85 0.05 0.05 0.05 0.85 0.05 0.05 0.05 0.85 0.05 0.05 0.05 0.85 0.05 0.05 0.05 0.8499999999999999 0.05 0.05 0.05 0.8499999999999999 0.05 0.05 0.05 0.8 0.1 0.05 0.05 0.8 0.1 0.05 0.05 0.8 0.1 0.05 0.05 0.8 0.1 0.05 0.05 0.8 0.1 0.05 0.05 0.8 0.1 0.05 0.05 0.8 0.1 0.05 0.05 0.8 0.1 0.05 0.05 0.8 0.1 0.05 0.05 0.8 0.1 0.05 0.05 0.8 0.1 0.05 0.05 0.8 0.1 0.05 0.05 0.75 0.1 0.05 0.1 0.75 0.1 0.05 0.1 0.75 0.1 0.05 0.1 0.75 0.1 0.05 0.1 0.75 0.1 0.05 0.1 0.75 0.1 0.05 0.1 0.7500000000000001 0.1 0.05 0.1 0.7500000000000001 0.1 0.05 0.1 0.75 0.1 0.05 0.1 0.75 0.1 0.05 0.1 0.75 0.1 0.05 0.1 0.75 0.1 0.05 0.1 0.5 0.15 0.15 0.2 0.5 0.15 0.15 0.2 0.5 0.15 0.15 0.2 0.5 0.15 0.15 0.2 0.5 0.15 0.15 0.2 0.5 0.15 0.15 0.2 0.5 0.15 0.15 0.2 0.5 0.15 0.15 0.2 0.5 0.15 0.15 0.2 0.5 0.15 0.15 0.2 0.5 0.15 0.15 0.2 0.5 0.15 0.15 0.2 0.5 0.15 0.15 0.2 0.5 0.15 0.15 0.2 0.5 0.15 0.15 0.2 0.5 0.15 0.15 0.2 0.5 0.15 0.15 0.2 0.5 0.15 0.15 0.2 0.5 0.15 0.15 0.2 0.5 0.15 0.15 0.2 0.5 0.15 0.15 0.2 0.5 0.15 0.15 0.2 0.5 0.15 0.15 0.2 0.5 0.15 0.15 0.2 0.9 0.05 0.03 0.02 0.9 0.05 0.03 0.02 0.9 0.05 0.03 0.02 0.9 0.05 0.03 0.02 0.9 0.05 0.03 0.02 0.9 0.05 0.03 0.02 0.9 0.05 0.03 0.02 0.9 0.05 0.03 0.02 0.8999999999999999 0.05 0.03 0.02 0.8999999999999999 0.05 0.03 0.02 0.9 0.05 0.03 0.02 0.8999999999999999 0.05 0.03 0.02 0.8 0.1 0.05 0.05 0.8 0.1 0.05 0.05 0.8 0.1 0.05 0.05 0.8 0.1 0.05 0.05 0.8 0.1 0.05 0.05 0.8 0.1 0.05 0.05 0.8 0.1 0.05 0.05 0.8 0.1 0.05 0.05 0.8 0.1 0.05 0.05 0.8 0.1 0.05 0.05 0.8 0.1 0.05 0.05 0.8 0.1 0.05 0.05 0.7 0.1 0.1 0.1 0.7 0.1 0.1 0.1 0.7 0.1 0.1 0.1 0.7 0.1 0.1 0.1 0.7 0.1 0.1 0.1 0.7 0.1 0.1 0.1 0.7 0.1 0.1 0.1 0.7 0.1 0.1 0.1 0.7 0.1 0.1 0.1 0.7 0.1 0.1 0.1 0.7 0.1 0.1 0.1 0.7 0.1 0.1 0.1 0.7 0.1 0.1 0.1 0.7 0.1 0.1 0.1 0.7 0.1 0.1 0.1 0.7 0.1 0.1 0.1 0.7 0.1 0.1 0.1 0.7 0.1 0.1 0.1 0.7 0.1 0.1 0.1 0.7 0.1 0.1 0.1 0.7 0.1 0.1 0.1 0.7 0.1 0.1 0.1 0.7 0.1 0.1 0.1 0.7 0.1 0.1 0.1 0.45 0.2 0.2 0.15 0.45 0.2 0.2 0.15 0.45 0.2 0.2 0.15 0.45 0.2 0.2 0.15 0.45 0.2 0.2 0.15 0.45 0.2 0.2 0.15 0.45 0.2 0.2 0.15 0.45 0.2 0.2 0.15 0.45 0.2 0.2 0.15 0.45 0.2 0.2 0.15 0.45 0.2 0.2 0.15 0.45 0.2 0.2 0.15 0.4 0.2 0.2 0.2 0.4 0.2 0.2 0.2 0.4 0.2 0.2 0.2 0.4 0.2 0.2 0.2 0.4 0.2 0.2 0.2 0.4 0.2 0.2 0.2 0.4 0.2 0.2 0.2 0.4 0.2 0.2 0.2 0.4 0.2 0.2 0.2 0.4 0.2 0.2 0.2 0.4 0.2 0.2 0.2 0.4 0.2 0.2 0.2 0.3 0.2 0.1 0.4 0.3 0.2 0.1 0.4 0.3 0.2 0.1 0.4 0.3 0.2 0.1 0.4 0.3 0.2 0.1 0.4 0.3 0.2 0.1 0.4 0.3 0.2 0.1 0.4 0.3 0.2 0.1 0.4 0.3 0.2 0.1 0.4 0.3 0.2 0.1 0.4 0.3 0.2 0.1 0.4 0.2999999999999999 0.2 0.1 0.4 0.3 0.2 0.1 0.4 0.3 0.2 0.1 0.4 0.3 0.2 0.1 0.4 0.3 0.2 0.1 0.4 0.3 0.2 0.1 0.4 0.3 0.2 0.1 0.4 0.3 0.2 0.1 0.4 0.3 0.2 0.1 0.4 0.3 0.2 0.1 0.4 0.3 0.2 0.1 0.4 0.3 0.2 0.1 0.4 0.2999999999999999 0.2 0.1 0.4 0.55 0.15 0.15 0.15 0.55 0.15 0.15 0.15 0.55 0.15 0.15 0.15 0.55 0.15 0.15 0.15 0.55 0.15 0.15 0.15 0.55 0.15 0.15 0.15 0.55 0.15 0.15 0.15 0.55 0.15 0.15 0.15 0.55 0.15 0.15 0.15 0.55 0.15 0.15 0.15 0.55 0.15 0.15 0.15 0.55 0.15 0.15 0.15 0.5 0.25 0.15 0.1 0.5 0.25 0.15 0.1 0.5 0.25 0.15 0.1 0.5 0.25 0.15 0.1 0.5 0.25 0.15 0.1 0.5 0.25 0.15 0.1 0.5 0.25 0.15 0.1 0.5 0.25 0.15 0.1 0.5 0.25 0.15 0.1 0.5 0.25 0.15 0.1 0.5 0.25 0.15 0.1 0.5 0.25 0.15 0.1 0.4 0.2 0.2 0.2 0.4 0.2 0.2 0.2 0.4 0.2 0.2 0.2 0.4 0.2 0.2 0.2 0.4 0.2 0.2 0.2 0.4 0.2 0.2 0.2 0.4 0.2 0.2 0.2 0.4 0.2 0.2 0.2 0.4 0.2 0.2 0.2 0.4 0.2 0.2 0.2 0.4 0.2 0.2 0.2 0.4 0.2 0.2 0.2 0.4 0.2 0.2 0.2 0.4 0.2 0.2 0.2 0.4 0.2 0.2 0.2 0.4 0.2 0.2 0.2 0.4 0.2 0.2 0.2 0.4 0.2 0.2 0.2 0.4 0.2 0.2 0.2 0.4 0.2 0.2 0.2 0.4 0.2 0.2 0.2 0.4 0.2 0.2 0.2 0.4 0.2 0.2 0.2 0.4 0.2 0.2 0.2 0 0.35 0.4 0.25 0 0.35 0.4 0.25 0 0.35 0.4 0.25 0 0.35 0.4 0.25 0 0.35 0.4 0.25 0 0.35 0.4 0.25 0 0.35 0.4 0.25 0 0.35 0.4 0.25 0 0.35 0.4 0.25 0 0.35 0.4 0.25 0 0.35 0.4 0.25 0 0.35 0.4 0.25 0 0.15 0.2 0.65 0 0.15 0.2 0.65 0 0.15 0.2 0.65 0 0.15 0.2 0.65 0 0.15 0.2 0.65 0 0.15 0.2 0.65 0 0.15 0.2 0.6500000000000001 0 0.15 0.2 0.6500000000000001 0 0.15 0.2 0.65 0 0.15 0.2 0.65 0 0.15 0.2 0.65 0 0.15 0.2 0.6499999999999999 0 0.15 0.15 0.7 0 0.15 0.15 0.7 0 0.15 0.15 0.7 0 0.15 0.15 0.7 0 0.15 0.15 0.7 0 0.15 0.15 0.7 0 0.15 0.15 0.7 0 0.15 0.15 0.7 0 0.15 0.15 0.7 0 0.15 0.15 0.7 0 0.15 0.15 0.7 0 0.15 0.15 0.7 0 0.15 0.15 0.7 0 0.15 0.15 0.7 0 0.15 0.15 0.7 0 0.15 0.15 0.7 0 0.15 0.15 0.7 0 0.15 0.15 0.7 0 0.15 0.15 0.7 0 0.15 0.15 0.7 0 0.15 0.15 0.7 0 0.15 0.15 0.7 0 0.15 0.15 0.7 0 0.15 0.15 0.7 0 0.5 0.4 0.1 0 0.5 0.4 0.1 0 0.5 0.4 0.1 0 0.5 0.4 0.1 0 0.5 0.4 0.1 0 0.5 0.4 0.1 0 0.5 0.4 0.1 0 0.5 0.4 0.1 0 0.5 0.4 0.1 0 0.5 0.4 0.1 0 0.5 0.4 0.1 0 0.5 0.4 0.1 0 0.2 0.2 0.6 0 0.2 0.2 0.6 0 0.2 0.2 0.6 0 0.2 0.2 0.6 0 0.2 0.2 0.6 0 0.2 0.2 0.6 0 0.2 0.2 0.6 0 0.2 0.2 0.6 0 0.2 0.2 0.6 0 0.2 0.2 0.6 0 0.2 0.2 0.6 0 0.2 0.2 0.5999999999999999 0 0.3 0.2 0.5 0 0.3 0.2 0.5 0 0.3 0.2 0.5 0 0.3 0.2 0.5 0 0.3 0.2 0.5 0 0.3 0.2 0.5 0 0.3 0.2 0.5 0 0.3 0.2 0.5 0 0.3 0.2 0.5 0 0.3 0.2 0.5 0 0.3 0.2 0.5 0 0.2999999999999999 0.2 0.5 0 0.3 0.2 0.5 0 0.3 0.2 0.5 0 0.3 0.2 0.5 0 0.3 0.2 0.5 0 0.3 0.2 0.5 0 0.3 0.2 0.5 0 0.3 0.2 0.5 0 0.3 0.2 0.5 0 0.3 0.2 0.5 0 0.3 0.2 0.5 0 0.3 0.2 0.5 0 0.2999999999999999 0.2 0.5 0 0.35 0.4 0.25 0 0.35 0.4 0.25 0 0.35 0.4 0.25 0 0.35 0.4 0.25 0 0.35 0.4 0.25 0 0.35 0.4 0.25 0 0.35 0.4 0.25 0 0.35 0.4 0.25 0 0.35 0.4 0.25 0 0.35 0.4 0.25 0 0.35 0.4 0.25 0 0.35 0.4 0.25 0 0.15 0.2 0.65 0 0.15 0.2 0.65 0 0.15 0.2 0.65 0 0.15 0.2 0.65 0 0.15 0.2 0.65 0 0.15 0.2 0.65 0 0.15 0.2 0.6500000000000001 0 0.15 0.2 0.6500000000000001 0 0.15 0.2 0.65 0 0.15 0.2 0.65 0 0.15 0.2 0.65 0 0.15 0.2 0.6499999999999999 0 0.15 0.15 0.7 0 0.15 0.15 0.7 0 0.15 0.15 0.7 0 0.15 0.15 0.7 0 0.15 0.15 0.7 0 0.15 0.15 0.7 0 0.15 0.15 0.7 0 0.15 0.15 0.7 0 0.15 0.15 0.7 0 0.15 0.15 0.7 0 0.15 0.15 0.7 0 0.15 0.15 0.7 0 0.15 0.15 0.7 0 0.15 0.15 0.7 0 0.15 0.15 0.7 0 0.15 0.15 0.7 0 0.15 0.15 0.7 0 0.15 0.15 0.7 0 0.15 0.15 0.7 0 0.15 0.15 0.7 0 0.15 0.15 0.7 0 0.15 0.15 0.7 0 0.15 0.15 0.7 0 0.15 0.15 0.7 0 0.5 0.4 0.1 0 0.5 0.4 0.1 0 0.5 0.4 0.1 0 0.5 0.4 0.1 0 0.5 0.4 0.1 0 0.5 0.4 0.1 0 0.5 0.4 0.1 0 0.5 0.4 0.1 0 0.5 0.4 0.1 0 0.5 0.4 0.1 0 0.5 0.4 0.1 0 0.5 0.4 0.1 0 0.2 0.2 0.6 0 0.2 0.2 0.6 0 0.2 0.2 0.6 0 0.2 0.2 0.6 0 0.2 0.2 0.6 0 0.2 0.2 0.6 0 0.2 0.2 0.6 0 0.2 0.2 0.6 0 0.2 0.2 0.6 0 0.2 0.2 0.6 0 0.2 0.2 0.6 0 0.2 0.2 0.5999999999999999 0 0.3 0.2 0.5 0 0.3 0.2 0.5 0 0.3 0.2 0.5 0 0.3 0.2 0.5 0 0.3 0.2 0.5 0 0.3 0.2 0.5 0 0.3 0.2 0.5 0 0.3 0.2 0.5 0 0.3 0.2 0.5 0 0.3 0.2 0.5 0 0.3 0.2 0.5 0 0.2999999999999999 0.2 0.5 0 0.3 0.2 0.5 0 0.3 0.2 0.5 0 0.3 0.2 0.5 0 0.3 0.2 0.5 0 0.3 0.2 0.5 0 0.3 0.2 0.5 0 0.3 0.2 0.5 0 0.3 0.2 0.5 0 0.3 0.2 0.5 0 0.3 0.2 0.5 0 0.3 0.2 0.5 0 0.2999999999999999 0.2 0.5 0.95 0.05 0 0 0.95 0.05 0 0 0.95 0.05 0 0 0.95 0.05 0 0 0.95 0.05 0 0 0.95 0.05 0 0 0.95 0.05 0 0 0.95 0.05 0 0 0.95 0.05 0 0 0.95 0.05 0 0 0.9499999999999998 0.05 0 0 0.95 0.05 0 0 0.95 0.05 0 0 0.95 0.05 0 0 0.95 0.05 0 0 0.95 0.05 0 0 0.95 0.05 0 0 0.95 0.05 0 0 0.95 0.05 0 0 0.95 0.05 0 0 0.95 0.05 0 0 0.95 0.05 0 0 0.9499999999999998 0.05 0 0 0.95 0.05 0 0 0.7 0.2 0 0.1 0.7 0.2 0 0.1 0.7 0.2 0 0.1 0.7 0.2 0 0.1 0.7 0.2 0 0.1 0.7 0.2 0 0.1 0.7 0.2 0 0.1 0.7 0.2 0 0.1 0.7 0.2 0 0.1 0.7 0.2 0 0.1 0.7 0.2 0 0.1 0.7 0.2 0 0.1 0.7 0.2 0 0.1 0.7 0.2 0 0.1 0.7 0.2 0 0.1 0.7 0.2 0 0.1 0.7 0.2 0 0.1 0.7 0.2 0 0.1 0.7 0.2 0 0.1 0.7 0.2 0 0.1 0.7 0.2 0 0.1 0.7 0.2 0 0.1 0.7 0.2 0 0.1 0.7 0.2 0 0.1 0.95 0.05 0 0 0.95 0.05 0 0 0.95 0.05 0 0 0.95 0.05 0 0 0.95 0.05 0 0 0.95 0.05 0 0 0.95 0.05 0 0 0.95 0.05 0 0 0.95 0.05 0 0 0.95 0.05 0 0 0.9499999999999998 0.05 0 0 0.95 0.05 0 0 0.95 0.05 0 0 0.95 0.05 0 0 0.95 0.05 0 0 0.95 0.05 0 0 0.95 0.05 0 0 0.95 0.05 0 0 0.95 0.05 0 0 0.95 0.05 0 0 0.95 0.05 0 0 0.95 0.05 0 0 0.9499999999999998 0.05 0 0 0.95 0.05 0 0 0.9 0.05 0 0.05 0.9 0.05 0 0.05 0.9 0.05 0 0.05 0.9 0.05 0 0.05 0.9 0.05 0 0.05 0.9 0.05 0 0.05 0.9 0.05 0 0.05 0.9 0.05 0 0.05 0.8999999999999999 0.05 0 0.05 0.8999999999999999 0.05 0 0.05 0.9 0.05 0 0.05 0.8999999999999999 0.05 0 0.05 0.9 0.05 0 0.05 0.9 0.05 0 0.05 0.9 0.05 0 0.05 0.9 0.05 0 0.05 0.9 0.05 0 0.05 0.9 0.05 0 0.05 0.9 0.05 0 0.05 0.9 0.05 0 0.05 0.8999999999999999 0.05 0 0.05 0.8999999999999999 0.05 0 0.05 0.9 0.05 0 0.05 0.8999999999999999 0.05 0 0.05 0.85 0.05 0 0.1 0.85 0.05 0 0.1 0.85 0.05 0 0.1 0.85 0.05 0 0.1 0.85 0.05 0 0.1 0.85 0.05 0 0.1 0.85 0.05 0 0.1 0.85 0.05 0 0.1 0.85 0.05 0 0.1 0.85 0.05 0 0.1 0.8499999999999999 0.05 0 0.1 0.8499999999999999 0.05 0 0.1 0.85 0.05 0 0.1 0.85 0.05 0 0.1 0.85 0.05 0 0.1 0.85 0.05 0 0.1 0.85 0.05 0 0.1 0.85 0.05 0 0.1 0.85 0.05 0 0.1 0.85 0.05 0 0.1 0.85 0.05 0 0.1 0.85 0.05 0 0.1 0.8499999999999999 0.05 0 0.1 0.8499999999999999 0.05 0 0.1 0.65 0.15 0 0.2 0.65 0.15 0 0.2 0.65 0.15 0 0.2 0.65 0.15 0 0.2 0.65 0.15 0 0.2 0.65 0.15 0 0.2 0.6500000000000001 0.15 0 0.2 0.6500000000000001 0.15 0 0.2 0.65 0.15 0 0.2 0.65 0.15 0 0.2 0.65 0.15 0 0.2 0.6499999999999999 0.15 0 0.2 0.65 0.15 0 0.2 0.65 0.15 0 0.2 0.65 0.15 0 0.2 0.65 0.15 0 0.2 0.65 0.15 0 0.2 0.65 0.15 0 0.2 0.6500000000000001 0.15 0 0.2 0.6500000000000001 0.15 0 0.2 0.65 0.15 0 0.2 0.65 0.15 0 0.2 0.65 0.15 0 0.2 0.6499999999999999 0.15 0 0.2 0.9 0.05 0 0.05 0.9 0.05 0 0.05 0.9 0.05 0 0.05 0.9 0.05 0 0.05 0.9 0.05 0 0.05 0.9 0.05 0 0.05 0.9 0.05 0 0.05 0.9 0.05 0 0.05 0.8999999999999999 0.05 0 0.05 0.8999999999999999 0.05 0 0.05 0.9 0.05 0 0.05 0.8999999999999999 0.05 0 0.05 0.9 0.05 0 0.05 0.9 0.05 0 0.05 0.9 0.05 0 0.05 0.9 0.05 0 0.05 0.9 0.05 0 0.05 0.9 0.05 0 0.05 0.9 0.05 0 0.05 0.9 0.05 0 0.05 0.8999999999999999 0.05 0 0.05 0.8999999999999999 0.05 0 0.05 0.9 0.05 0 0.05 0.8999999999999999 0.05 0 0.05 0.8 0.1 0 0.1 0.8 0.1 0 0.1 0.8 0.1 0 0.1 0.8 0.1 0 0.1 0.8 0.1 0 0.1 0.8 0.1 0 0.1 0.8 0.1 0 0.1 0.8 0.1 0 0.1 0.8 0.1 0 0.1 0.8 0.1 0 0.1 0.8 0.1 0 0.1 0.8 0.1 0 0.1 0.8 0.1 0 0.1 0.8 0.1 0 0.1 0.8 0.1 0 0.1 0.8 0.1 0 0.1 0.8 0.1 0 0.1 0.8 0.1 0 0.1 0.8 0.1 0 0.1 0.8 0.1 0 0.1 0.8 0.1 0 0.1 0.8 0.1 0 0.1 0.8 0.1 0 0.1 0.8 0.1 0 0.1 0.5 0.25 0 0.25 0.5 0.25 0 0.25 0.5 0.25 0 0.25 0.5 0.25 0 0.25 0.5 0.25 0 0.25 0.5 0.25 0 0.25 0.5 0.25 0 0.25 0.5 0.25 0 0.25 0.5 0.25 0 0.25 0.5 0.25 0 0.25 0.5 0.25 0 0.25 0.5 0.25 0 0.25 0.5 0.25 0 0.25 0.5 0.25 0 0.25 0.5 0.25 0 0.25 0.5 0.25 0 0.25 0.5 0.25 0 0.25 0.5 0.25 0 0.25 0.5 0.25 0 0.25 0.5 0.25 0 0.25 0.5 0.25 0 0.25 0.5 0.25 0 0.25 0.5 0.25 0 0.25 0.5 0.25 0 0.25 0.4 0.25 0 0.35 0.4 0.25 0 0.35 0.4 0.25 0 0.35 0.4 0.25 0 0.35 0.4 0.25 0 0.35 0.4 0.25 0 0.35 0.4 0.25 0 0.35 0.4 0.25 0 0.35 0.4 0.25 0 0.35 0.4 0.25 0 0.35 0.4 0.25 0 0.35 0.4 0.25 0 0.35 0.4 0.25 0 0.35 0.4 0.25 0 0.35 0.4 0.25 0 0.35 0.4 0.25 0 0.35 0.4 0.25 0 0.35 0.4 0.25 0 0.35 0.4 0.25 0 0.35 0.4 0.25 0 0.35 0.4 0.25 0 0.35 0.4 0.25 0 0.35 0.4 0.25 0 0.35 0.4 0.25 0 0.35 0.55 0.3 0 0.15 0.55 0.3 0 0.15 0.55 0.3 0 0.15 0.55 0.3 0 0.15 0.55 0.3 0 0.15 0.55 0.3 0 0.15 0.55 0.3 0 0.15 0.55 0.3 0 0.15 0.55 0.3 0 0.15 0.55 0.3 0 0.15 0.55 0.3 0 0.15 0.55 0.2999999999999999 0 0.15 0.55 0.3 0 0.15 0.55 0.3 0 0.15 0.55 0.3 0 0.15 0.55 0.3 0 0.15 0.55 0.3 0 0.15 0.55 0.3 0 0.15 0.55 0.3 0 0.15 0.55 0.3 0 0.15 0.55 0.3 0 0.15 0.55 0.3 0 0.15 0.55 0.3 0 0.15 0.55 0.2999999999999999 0 0.15 0.5 0.25 0 0.25 0.5 0.25 0 0.25 0.5 0.25 0 0.25 0.5 0.25 0 0.25 0.5 0.25 0 0.25 0.5 0.25 0 0.25 0.5 0.25 0 0.25 0.5 0.25 0 0.25 0.5 0.25 0 0.25 0.5 0.25 0 0.25 0.5 0.25 0 0.25 0.5 0.25 0 0.25 0.5 0.25 0 0.25 0.5 0.25 0 0.25 0.5 0.25 0 0.25 0.5 0.25 0 0.25 0.5 0.25 0 0.25 0.5 0.25 0 0.25 0.5 0.25 0 0.25 0.5 0.25 0 0.25 0.5 0.25 0 0.25 0.5 0.25 0 0.25 0.5 0.25 0 0.25 0.5 0.25 0 0.25 0 0.3 0 0.7 0 0.3 0 0.7 0 0.3 0 0.7 0 0.3 0 0.7 0 0.3 0 0.7 0 0.3 0 0.7 0 0.3 0 0.7 0 0.3 0 0.7 0 0.3 0 0.7 0 0.3 0 0.7 0 0.3 0 0.7 0 0.2999999999999999 0 0.7 0 0.3 0 0.7 0 0.3 0 0.7 0 0.3 0 0.7 0 0.3 0 0.7 0 0.3 0 0.7 0 0.3 0 0.7 0 0.3 0 0.7 0 0.3 0 0.7 0 0.3 0 0.7 0 0.3 0 0.7 0 0.3 0 0.7 0 0.2999999999999999 0 0.7 0 0.3 0 0.7 0 0.3 0 0.7 0 0.3 0 0.7 0 0.3 0 0.7 0 0.3 0 0.7 0 0.3 0 0.7 0 0.3 0 0.7 0 0.3 0 0.7 0 0.3 0 0.7 0 0.3 0 0.7 0 0.3 0 0.7 0 0.2999999999999999 0 0.7 0 0.3 0 0.7 0 0.3 0 0.7 0 0.3 0 0.7 0 0.3 0 0.7 0 0.3 0 0.7 0 0.3 0 0.7 0 0.3 0 0.7 0 0.3 0 0.7 0 0.3 0 0.7 0 0.3 0 0.7 0 0.3 0 0.7 0 0.2999999999999999 0 0.7 0 0.4 0 0.6 0 0.4 0 0.6 0 0.4 0 0.6 0 0.4 0 0.6 0 0.4 0 0.6 0 0.4 0 0.6 0 0.4 0 0.6 0 0.4 0 0.6 0 0.4 0 0.6 0 0.4 0 0.6 0 0.4 0 0.6 0 0.4 0 0.5999999999999999 0 0.4 0 0.6 0 0.4 0 0.6 0 0.4 0 0.6 0 0.4 0 0.6 0 0.4 0 0.6 0 0.4 0 0.6 0 0.4 0 0.6 0 0.4 0 0.6 0 0.4 0 0.6 0 0.4 0 0.6 0 0.4 0 0.6 0 0.4 0 0.5999999999999999 0 0.5 0 0.5 0 0.5 0 0.5 0 0.5 0 0.5 0 0.5 0 0.5 0 0.5 0 0.5 0 0.5 0 0.5 0 0.5 0 0.5 0 0.5 0 0.5 0 0.5 0 0.5 0 0.5 0 0.5 0 0.5 0 0.5 0 0.5 0 0.5 0 0.5 0 0.5 0 0.5 0 0.5 0 0.5 0 0.5 0 0.5 0 0.5 0 0.5 0 0.5 0 0.5 0 0.5 0 0.5 0 0.5 0 0.5 0 0.5 0 0.5 0 0.5 0 0.5 0 0.5 0 0.5 0 0.5 0 0.5 0 0.5 0 0.3 0 0.7 0 0.3 0 0.7 0 0.3 0 0.7 0 0.3 0 0.7 0 0.3 0 0.7 0 0.3 0 0.7 0 0.3 0 0.7 0 0.3 0 0.7 0 0.3 0 0.7 0 0.3 0 0.7 0 0.3 0 0.7 0 0.2999999999999999 0 0.7 0 0.3 0 0.7 0 0.3 0 0.7 0 0.3 0 0.7 0 0.3 0 0.7 0 0.3 0 0.7 0 0.3 0 0.7 0 0.3 0 0.7 0 0.3 0 0.7 0 0.3 0 0.7 0 0.3 0 0.7 0 0.3 0 0.7 0 0.2999999999999999 0 0.7 0 0.3 0 0.7 0 0.3 0 0.7 0 0.3 0 0.7 0 0.3 0 0.7 0 0.3 0 0.7 0 0.3 0 0.7 0 0.3 0 0.7 0 0.3 0 0.7 0 0.3 0 0.7 0 0.3 0 0.7 0 0.3 0 0.7 0 0.2999999999999999 0 0.7 0 0.3 0 0.7 0 0.3 0 0.7 0 0.3 0 0.7 0 0.3 0 0.7 0 0.3 0 0.7 0 0.3 0 0.7 0 0.3 0 0.7 0 0.3 0 0.7 0 0.3 0 0.7 0 0.3 0 0.7 0 0.3 0 0.7 0 0.2999999999999999 0 0.7 0 0.4 0 0.6 0 0.4 0 0.6 0 0.4 0 0.6 0 0.4 0 0.6 0 0.4 0 0.6 0 0.4 0 0.6 0 0.4 0 0.6 0 0.4 0 0.6 0 0.4 0 0.6 0 0.4 0 0.6 0 0.4 0 0.6 0 0.4 0 0.5999999999999999 0 0.4 0 0.6 0 0.4 0 0.6 0 0.4 0 0.6 0 0.4 0 0.6 0 0.4 0 0.6 0 0.4 0 0.6 0 0.4 0 0.6 0 0.4 0 0.6 0 0.4 0 0.6 0 0.4 0 0.6 0 0.4 0 0.6 0 0.4 0 0.5999999999999999 0 0.5 0 0.5 0 0.5 0 0.5 0 0.5 0 0.5 0 0.5 0 0.5 0 0.5 0 0.5 0 0.5 0 0.5 0 0.5 0 0.5 0 0.5 0 0.5 0 0.5 0 0.5 0 0.5 0 0.5 0 0.5 0 0.5 0 0.5 0 0.5 0 0.5 0 0.5 0 0.5 0 0.5 0 0.5 0 0.5 0 0.5 0 0.5 0 0.5 0 0.5 0 0.5 0 0.5 0 0.5 0 0.5 0 0.5 0 0.5 0 0.5 0 0.5 0 0.5 0 0.5 0 0.5 0 0.5 0 0.5 0 0.5 0.9 0.02 0 0.07999999999999999 0.9 0.02 0 0.07999999999999999 0.9 0.02 0 0.07999999999999999 0.9 0.02 0 0.08 0.9 0.02 0 0.08 0.9 0.02 0 0.08 0.9 0.02 0 0.08 0.9 0.02 0 0.08 0.8999999999999999 0.02 0 0.08 0.8999999999999999 0.02 0 0.08 0.9 0.02 0 0.07999999999999999 0.8999999999999999 0.02 0 0.08 0.9 0.02 0 0.07999999999999999 0.9 0.02 0 0.07999999999999999 0.9 0.02 0 0.07999999999999999 0.9 0.02 0 0.08 0.9 0.02 0 0.08 0.9 0.02 0 0.08 0.9 0.02 0 0.08 0.9 0.02 0 0.08 0.8999999999999999 0.02 0 0.08 0.8999999999999999 0.02 0 0.08 0.9 0.02 0 0.07999999999999999 0.8999999999999999 0.02 0 0.08 0.6 0.1 0 0.3 0.6 0.1 0 0.3 0.6 0.1 0 0.3 0.6 0.1 0 0.3 0.6 0.1 0 0.3 0.6 0.1 0 0.3 0.6 0.1 0 0.3 0.6 0.1 0 0.3 0.6 0.1 0 0.3 0.6 0.1 0 0.3 0.6 0.1 0 0.3 0.5999999999999999 0.1 0 0.2999999999999999 0.6 0.1 0 0.3 0.6 0.1 0 0.3 0.6 0.1 0 0.3 0.6 0.1 0 0.3 0.6 0.1 0 0.3 0.6 0.1 0 0.3 0.6 0.1 0 0.3 0.6 0.1 0 0.3 0.6 0.1 0 0.3 0.6 0.1 0 0.3 0.6 0.1 0 0.3 0.5999999999999999 0.1 0 0.2999999999999999 0.95 0.02 0 0.03 0.95 0.02 0 0.03 0.95 0.02 0 0.03 0.95 0.02 0 0.03 0.95 0.02 0 0.03 0.95 0.02 0 0.03 0.95 0.02 0 0.03 0.95 0.02 0 0.03 0.95 0.02 0 0.03 0.95 0.02 0 0.03 0.9499999999999998 0.02 0 0.03 0.95 0.02 0 0.03 0.95 0.02 0 0.03 0.95 0.02 0 0.03 0.95 0.02 0 0.03 0.95 0.02 0 0.03 0.95 0.02 0 0.03 0.95 0.02 0 0.03 0.95 0.02 0 0.03 0.95 0.02 0 0.03 0.95 0.02 0 0.03 0.95 0.02 0 0.03 0.9499999999999998 0.02 0 0.03 0.95 0.02 0 0.03 0.85 0.05 0 0.1 0.85 0.05 0 0.1 0.85 0.05 0 0.1 0.85 0.05 0 0.1 0.85 0.05 0 0.1 0.85 0.05 0 0.1 0.85 0.05 0 0.1 0.85 0.05 0 0.1 0.85 0.05 0 0.1 0.85 0.05 0 0.1 0.8499999999999999 0.05 0 0.1 0.8499999999999999 0.05 0 0.1 0.85 0.05 0 0.1 0.85 0.05 0 0.1 0.85 0.05 0 0.1 0.85 0.05 0 0.1 0.85 0.05 0 0.1 0.85 0.05 0 0.1 0.85 0.05 0 0.1 0.85 0.05 0 0.1 0.85 0.05 0 0.1 0.85 0.05 0 0.1 0.8499999999999999 0.05 0 0.1 0.8499999999999999 0.05 0 0.1 0.75 0.1 0 0.15 0.75 0.1 0 0.15 0.75 0.1 0 0.15 0.75 0.1 0 0.15 0.75 0.1 0 0.15 0.75 0.1 0 0.15 0.7500000000000001 0.1 0 0.15 0.7500000000000001 0.1 0 0.15 0.75 0.1 0 0.15 0.75 0.1 0 0.15 0.75 0.1 0 0.15 0.75 0.1 0 0.15 0.75 0.1 0 0.15 0.75 0.1 0 0.15 0.75 0.1 0 0.15 0.75 0.1 0 0.15 0.75 0.1 0 0.15 0.75 0.1 0 0.15 0.7500000000000001 0.1 0 0.15 0.7500000000000001 0.1 0 0.15 0.75 0.1 0 0.15 0.75 0.1 0 0.15 0.75 0.1 0 0.15 0.75 0.1 0 0.15 0.5 0.15 0 0.35 0.5 0.15 0 0.35 0.5 0.15 0 0.35 0.5 0.15 0 0.35 0.5 0.15 0 0.35 0.5 0.15 0 0.35 0.5 0.15 0 0.35 0.5 0.15 0 0.35 0.5 0.15 0 0.35 0.5 0.15 0 0.35 0.5 0.15 0 0.35 0.5 0.15 0 0.35 0.5 0.15 0 0.35 0.5 0.15 0 0.35 0.5 0.15 0 0.35 0.5 0.15 0 0.35 0.5 0.15 0 0.35 0.5 0.15 0 0.35 0.5 0.15 0 0.35 0.5 0.15 0 0.35 0.5 0.15 0 0.35 0.5 0.15 0 0.35 0.5 0.15 0 0.35 0.5 0.15 0 0.35 0.8 0.1 0 0.1 0.8 0.1 0 0.1 0.8 0.1 0 0.1 0.8 0.1 0 0.1 0.8 0.1 0 0.1 0.8 0.1 0 0.1 0.8 0.1 0 0.1 0.8 0.1 0 0.1 0.8 0.1 0 0.1 0.8 0.1 0 0.1 0.8 0.1 0 0.1 0.8 0.1 0 0.1 0.8 0.1 0 0.1 0.8 0.1 0 0.1 0.8 0.1 0 0.1 0.8 0.1 0 0.1 0.8 0.1 0 0.1 0.8 0.1 0 0.1 0.8 0.1 0 0.1 0.8 0.1 0 0.1 0.8 0.1 0 0.1 0.8 0.1 0 0.1 0.8 0.1 0 0.1 0.8 0.1 0 0.1 0.7 0.1 0 0.2 0.7 0.1 0 0.2 0.7 0.1 0 0.2 0.7 0.1 0 0.2 0.7 0.1 0 0.2 0.7 0.1 0 0.2 0.7 0.1 0 0.2 0.7 0.1 0 0.2 0.7 0.1 0 0.2 0.7 0.1 0 0.2 0.7 0.1 0 0.2 0.7 0.1 0 0.2 0.7 0.1 0 0.2 0.7 0.1 0 0.2 0.7 0.1 0 0.2 0.7 0.1 0 0.2 0.7 0.1 0 0.2 0.7 0.1 0 0.2 0.7 0.1 0 0.2 0.7 0.1 0 0.2 0.7 0.1 0 0.2 0.7 0.1 0 0.2 0.7 0.1 0 0.2 0.7 0.1 0 0.2 0.4 0.2 0 0.4 0.4 0.2 0 0.4 0.4 0.2 0 0.4 0.4 0.2 0 0.4 0.4 0.2 0 0.4 0.4 0.2 0 0.4 0.4 0.2 0 0.4 0.4 0.2 0 0.4 0.4 0.2 0 0.4 0.4 0.2 0 0.4 0.4 0.2 0 0.4 0.4 0.2 0 0.4 0.4 0.2 0 0.4 0.4 0.2 0 0.4 0.4 0.2 0 0.4 0.4 0.2 0 0.4 0.4 0.2 0 0.4 0.4 0.2 0 0.4 0.4 0.2 0 0.4 0.4 0.2 0 0.4 0.4 0.2 0 0.4 0.4 0.2 0 0.4 0.4 0.2 0 0.4 0.4 0.2 0 0.4 0.35 0.2 0 0.45 0.35 0.2 0 0.45 0.35 0.2 0 0.45 0.35 0.2 0 0.45 0.35 0.2 0 0.45 0.35 0.2 0 0.45 0.35 0.2 0 0.45 0.35 0.2 0 0.45 0.35 0.2 0 0.45 0.35 0.2 0 0.45 0.35 0.2 0 0.45 0.35 0.2 0 0.45 0.35 0.2 0 0.45 0.35 0.2 0 0.45 0.35 0.2 0 0.45 0.35 0.2 0 0.45 0.35 0.2 0 0.45 0.35 0.2 0 0.45 0.35 0.2 0 0.45 0.35 0.2 0 0.45 0.35 0.2 0 0.45 0.35 0.2 0 0.45 0.35 0.2 0 0.45 0.35 0.2 0 0.45 0.5 0.25 0 0.25 0.5 0.25 0 0.25 0.5 0.25 0 0.25 0.5 0.25 0 0.25 0.5 0.25 0 0.25 0.5 0.25 0 0.25 0.5 0.25 0 0.25 0.5 0.25 0 0.25 0.5 0.25 0 0.25 0.5 0.25 0 0.25 0.5 0.25 0 0.25 0.5 0.25 0 0.25 0.5 0.25 0 0.25 0.5 0.25 0 0.25 0.5 0.25 0 0.25 0.5 0.25 0 0.25 0.5 0.25 0 0.25 0.5 0.25 0 0.25 0.5 0.25 0 0.25 0.5 0.25 0 0.25 0.5 0.25 0 0.25 0.5 0.25 0 0.25 0.5 0.25 0 0.25 0.5 0.25 0 0.25 0.4 0.2 0 0.4 0.4 0.2 0 0.4 0.4 0.2 0 0.4 0.4 0.2 0 0.4 0.4 0.2 0 0.4 0.4 0.2 0 0.4 0.4 0.2 0 0.4 0.4 0.2 0 0.4 0.4 0.2 0 0.4 0.4 0.2 0 0.4 0.4 0.2 0 0.4 0.4 0.2 0 0.4 0.4 0.2 0 0.4 0.4 0.2 0 0.4 0.4 0.2 0 0.4 0.4 0.2 0 0.4 0.4 0.2 0 0.4 0.4 0.2 0 0.4 0.4 0.2 0 0.4 0.4 0.2 0 0.4 0.4 0.2 0 0.4 0.4 0.2 0 0.4 0.4 0.2 0 0.4 0.4 0.2 0 0.4 0 0.3 0 0.7 0 0.3 0 0.7 0 0.3 0 0.7 0 0.3 0 0.7 0 0.3 0 0.7 0 0.3 0 0.7 0 0.3 0 0.7 0 0.3 0 0.7 0 0.3 0 0.7 0 0.3 0 0.7 0 0.3 0 0.7 0 0.2999999999999999 0 0.7 0 0.3 0 0.7 0 0.3 0 0.7 0 0.3 0 0.7 0 0.3 0 0.7 0 0.3 0 0.7 0 0.3 0 0.7 0 0.3 0 0.7 0 0.3 0 0.7 0 0.3 0 0.7 0 0.3 0 0.7 0 0.3 0 0.7 0 0.2999999999999999 0 0.7 0 0.3 0 0.7 0 0.3 0 0.7 0 0.3 0 0.7 0 0.3 0 0.7 0 0.3 0 0.7 0 0.3 0 0.7 0 0.3 0 0.7 0 0.3 0 0.7 0 0.3 0 0.7 0 0.3 0 0.7 0 0.3 0 0.7 0 0.2999999999999999 0 0.7 0 0.3 0 0.7 0 0.3 0 0.7 0 0.3 0 0.7 0 0.3 0 0.7 0 0.3 0 0.7 0 0.3 0 0.7 0 0.3 0 0.7 0 0.3 0 0.7 0 0.3 0 0.7 0 0.3 0 0.7 0 0.3 0 0.7 0 0.2999999999999999 0 0.7 0 0.4 0 0.6 0 0.4 0 0.6 0 0.4 0 0.6 0 0.4 0 0.6 0 0.4 0 0.6 0 0.4 0 0.6 0 0.4 0 0.6 0 0.4 0 0.6 0 0.4 0 0.6 0 0.4 0 0.6 0 0.4 0 0.6 0 0.4 0 0.5999999999999999 0 0.4 0 0.6 0 0.4 0 0.6 0 0.4 0 0.6 0 0.4 0 0.6 0 0.4 0 0.6 0 0.4 0 0.6 0 0.4 0 0.6 0 0.4 0 0.6 0 0.4 0 0.6 0 0.4 0 0.6 0 0.4 0 0.6 0 0.4 0 0.5999999999999999 0 0.6 0 0.4 0 0.6 0 0.4 0 0.6 0 0.4 0 0.6 0 0.4 0 0.6 0 0.4 0 0.6 0 0.4 0 0.6 0 0.4 0 0.6 0 0.4 0 0.6 0 0.4 0 0.6 0 0.4 0 0.6 0 0.4 0 0.5999999999999999 0 0.4 0 0.6 0 0.4 0 0.6 0 0.4 0 0.6 0 0.4 0 0.6 0 0.4 0 0.6 0 0.4 0 0.6 0 0.4 0 0.6 0 0.4 0 0.6 0 0.4 0 0.6 0 0.4 0 0.6 0 0.4 0 0.6 0 0.4 0 0.5999999999999999 0 0.4 0 0.3 0 0.7 0 0.3 0 0.7 0 0.3 0 0.7 0 0.3 0 0.7 0 0.3 0 0.7 0 0.3 0 0.7 0 0.3 0 0.7 0 0.3 0 0.7 0 0.3 0 0.7 0 0.3 0 0.7 0 0.3 0 0.7 0 0.2999999999999999 0 0.7 0 0.3 0 0.7 0 0.3 0 0.7 0 0.3 0 0.7 0 0.3 0 0.7 0 0.3 0 0.7 0 0.3 0 0.7 0 0.3 0 0.7 0 0.3 0 0.7 0 0.3 0 0.7 0 0.3 0 0.7 0 0.3 0 0.7 0 0.2999999999999999 0 0.7 0 0.3 0 0.7 0 0.3 0 0.7 0 0.3 0 0.7 0 0.3 0 0.7 0 0.3 0 0.7 0 0.3 0 0.7 0 0.3 0 0.7 0 0.3 0 0.7 0 0.3 0 0.7 0 0.3 0 0.7 0 0.3 0 0.7 0 0.2999999999999999 0 0.7 0 0.3 0 0.7 0 0.3 0 0.7 0 0.3 0 0.7 0 0.3 0 0.7 0 0.3 0 0.7 0 0.3 0 0.7 0 0.3 0 0.7 0 0.3 0 0.7 0 0.3 0 0.7 0 0.3 0 0.7 0 0.3 0 0.7 0 0.2999999999999999 0 0.7 0 0.4 0 0.6 0 0.4 0 0.6 0 0.4 0 0.6 0 0.4 0 0.6 0 0.4 0 0.6 0 0.4 0 0.6 0 0.4 0 0.6 0 0.4 0 0.6 0 0.4 0 0.6 0 0.4 0 0.6 0 0.4 0 0.6 0 0.4 0 0.5999999999999999 0 0.4 0 0.6 0 0.4 0 0.6 0 0.4 0 0.6 0 0.4 0 0.6 0 0.4 0 0.6 0 0.4 0 0.6 0 0.4 0 0.6 0 0.4 0 0.6 0 0.4 0 0.6 0 0.4 0 0.6 0 0.4 0 0.6 0 0.4 0 0.5999999999999999 0 0.6 0 0.4 0 0.6 0 0.4 0 0.6 0 0.4 0 0.6 0 0.4 0 0.6 0 0.4 0 0.6 0 0.4 0 0.6 0 0.4 0 0.6 0 0.4 0 0.6 0 0.4 0 0.6 0 0.4 0 0.6 0 0.4 0 0.5999999999999999 0 0.4 0 0.6 0 0.4 0 0.6 0 0.4 0 0.6 0 0.4 0 0.6 0 0.4 0 0.6 0 0.4 0 0.6 0 0.4 0 0.6 0 0.4 0 0.6 0 0.4 0 0.6 0 0.4 0 0.6 0 0.4 0 0.6 0 0.4 0 0.5999999999999999 0 0.4 0.7855000000000001 0.1 0.05 0.0645 0.7855000000000001 0.1 0.05 0.0645 0.7855000000000001 0.1 0.05 0.0645 0.776 0.1 0.05 0.07400000000000001 0.776 0.1 0.05 0.07400000000000001 0.776 0.1 0.05 0.07400000000000001 0.7664999999999999 0.09999999999999998 0.04999999999999999 0.08349999999999999 0.7569999999999999 0.1 0.05 0.093 0.7475000000000001 0.1 0.05 0.1025 0.7284999999999999 0.09999999999999999 0.05 0.1215 0.7095 0.1 0.05 0.1405 0.7095 0.1 0.05 0.1405 0.7355 0.1 0.07000000000000001 0.0945 0.7355 0.1 0.07000000000000001 0.0945 0.7355 0.1 0.07000000000000001 0.0945 0.7260000000000001 0.1 0.07000000000000001 0.104 0.7260000000000001 0.1 0.07000000000000001 0.104 0.7260000000000001 0.1 0.07000000000000001 0.104 0.7164999999999999 0.09999999999999998 0.07000000000000001 0.1135 0.7070000000000001 0.1 0.07000000000000001 0.123 0.6975 0.1 0.07000000000000001 0.1325 0.6785 0.09999999999999999 0.07000000000000001 0.1515 0.6595000000000001 0.1 0.07000000000000001 0.1705 0.6595000000000001 0.1 0.07000000000000001 0.1705 0.7355 0.1 0.07000000000000001 0.0945 0.7355 0.1 0.07000000000000001 0.0945 0.7355 0.1 0.07000000000000001 0.0945 0.7260000000000001 0.1 0.07000000000000001 0.104 0.7260000000000001 0.1 0.07000000000000001 0.104 0.7260000000000001 0.1 0.07000000000000001 0.104 0.7164999999999999 0.09999999999999998 0.07000000000000001 0.1135 0.7070000000000001 0.1 0.07000000000000001 0.123 0.6975 0.1 0.07000000000000001 0.1325 0.6785 0.09999999999999999 0.07000000000000001 0.1515 0.6595000000000001 0.1 0.07000000000000001 0.1705 0.6595000000000001 0.1 0.07000000000000001 0.1705 0.7355 0.1 0.07000000000000001 0.0945 0.7355 0.1 0.07000000000000001 0.0945 0.7355 0.1 0.07000000000000001 0.0945 0.7260000000000001 0.1 0.07000000000000001 0.104 0.7260000000000001 0.1 0.07000000000000001 0.104 0.7260000000000001 0.1 0.07000000000000001 0.104 0.7164999999999999 0.09999999999999998 0.07000000000000001 0.1135 0.7070000000000001 0.1 0.07000000000000001 0.123 0.6975 0.1 0.07000000000000001 0.1325 0.6785 0.09999999999999999 0.07000000000000001 0.1515 0.6595000000000001 0.1 0.07000000000000001 0.1705 0.6595000000000001 0.1 0.07000000000000001 0.1705 0.8855 0.05 0.03 0.0345 0.8855 0.05 0.03 0.0345 0.8855 0.05 0.03 0.0345 0.8760000000000001 0.05 0.03 0.044 0.8760000000000001 0.05 0.03 0.044 0.8760000000000001 0.05 0.03 0.044 0.8664999999999998 0.04999999999999999 0.02999999999999999 0.05349999999999999 0.857 0.05 0.03 0.063 0.8475 0.05 0.03 0.0725 0.8285 0.05 0.03 0.09149999999999998 0.8095000000000001 0.05 0.03 0.1105 0.8095000000000001 0.05 0.03 0.1105 0.7855000000000001 0.1 0.05 0.0645 0.7855000000000001 0.1 0.05 0.0645 0.7855000000000001 0.1 0.05 0.0645 0.776 0.1 0.05 0.07400000000000001 0.776 0.1 0.05 0.07400000000000001 0.776 0.1 0.05 0.07400000000000001 0.7664999999999999 0.09999999999999998 0.04999999999999999 0.08349999999999999 0.7569999999999999 0.1 0.05 0.093 0.7475000000000001 0.1 0.05 0.1025 0.7284999999999999 0.09999999999999999 0.05 0.1215 0.7095 0.1 0.05 0.1405 0.7095 0.1 0.05 0.1405 0.8855 0.05 0.03 0.0345 0.8855 0.05 0.03 0.0345 0.8855 0.05 0.03 0.0345 0.8760000000000001 0.05 0.03 0.044 0.8760000000000001 0.05 0.03 0.044 0.8760000000000001 0.05 0.03 0.044 0.8664999999999998 0.04999999999999999 0.02999999999999999 0.05349999999999999 0.857 0.05 0.03 0.063 0.8475 0.05 0.03 0.0725 0.8285 0.05 0.03 0.09149999999999998 0.8095000000000001 0.05 0.03 0.1105 0.8095000000000001 0.05 0.03 0.1105 0.8855 0.05 0.03 0.0345 0.8855 0.05 0.03 0.0345 0.8855 0.05 0.03 0.0345 0.8760000000000001 0.05 0.03 0.044 0.8760000000000001 0.05 0.03 0.044 0.8760000000000001 0.05 0.03 0.044 0.8664999999999998 0.04999999999999999 0.02999999999999999 0.05349999999999999 0.857 0.05 0.03 0.063 0.8475 0.05 0.03 0.0725 0.8285 0.05 0.03 0.09149999999999998 0.8095000000000001 0.05 0.03 0.1105 0.8095000000000001 0.05 0.03 0.1105 0.6854999999999999 0.15 0.1 0.0645 0.6854999999999999 0.15 0.1 0.0645 0.6854999999999999 0.15 0.1 0.0645 0.6759999999999999 0.15 0.1 0.07400000000000001 0.6759999999999999 0.15 0.1 0.07400000000000001 0.6759999999999999 0.15 0.1 0.07400000000000001 0.6664999999999999 0.15 0.09999999999999998 0.08349999999999999 0.657 0.15 0.1 0.093 0.6475 0.15 0.1 0.1025 0.6285 0.15 0.09999999999999999 0.1215 0.6095 0.15 0.1 0.1405 0.6095 0.15 0.1 0.1405 0.6355 0.1 0.12 0.1445 0.6355 0.1 0.12 0.1445 0.6355 0.1 0.12 0.1445 0.6260000000000001 0.1 0.12 0.154 0.6260000000000001 0.1 0.12 0.154 0.6260000000000001 0.1 0.12 0.154 0.6164999999999999 0.09999999999999998 0.12 0.1635 0.607 0.1 0.12 0.173 0.5975 0.1 0.12 0.1825 0.5785 0.09999999999999999 0.12 0.2015 0.5595000000000001 0.1 0.12 0.2205 0.5595000000000001 0.1 0.12 0.2205 0.6854999999999999 0.1 0.1 0.1145 0.6854999999999999 0.1 0.1 0.1145 0.6854999999999999 0.1 0.1 0.1145 0.6759999999999999 0.1 0.1 0.124 0.6759999999999999 0.1 0.1 0.124 0.6759999999999999 0.1 0.1 0.124 0.6664999999999999 0.09999999999999998 0.09999999999999998 0.1335 0.657 0.1 0.1 0.143 0.6475 0.1 0.1 0.1525 0.6285 0.09999999999999999 0.09999999999999999 0.1715 0.6095 0.1 0.1 0.1905 0.6095 0.1 0.1 0.1905 0.6854999999999999 0.1 0.1 0.1145 0.6854999999999999 0.1 0.1 0.1145 0.6854999999999999 0.1 0.1 0.1145 0.6759999999999999 0.1 0.1 0.124 0.6759999999999999 0.1 0.1 0.124 0.6759999999999999 0.1 0.1 0.124 0.6664999999999999 0.09999999999999998 0.09999999999999998 0.1335 0.657 0.1 0.1 0.143 0.6475 0.1 0.1 0.1525 0.6285 0.09999999999999999 0.09999999999999999 0.1715 0.6095 0.1 0.1 0.1905 0.6095 0.1 0.1 0.1905 0.7855000000000001 0.1 0.05 0.0645 0.7855000000000001 0.1 0.05 0.0645 0.7855000000000001 0.1 0.05 0.0645 0.776 0.1 0.05 0.07400000000000001 0.776 0.1 0.05 0.07400000000000001 0.776 0.1 0.05 0.07400000000000001 0.7664999999999999 0.09999999999999998 0.04999999999999999 0.08349999999999999 0.7569999999999999 0.1 0.05 0.093 0.7475000000000001 0.1 0.05 0.1025 0.7284999999999999 0.09999999999999999 0.05 0.1215 0.7095 0.1 0.05 0.1405 0.7095 0.1 0.05 0.1405 0.6854999999999999 0.1 0.1 0.1145 0.6854999999999999 0.1 0.1 0.1145 0.6854999999999999 0.1 0.1 0.1145 0.6759999999999999 0.1 0.1 0.124 0.6759999999999999 0.1 0.1 0.124 0.6759999999999999 0.1 0.1 0.124 0.6664999999999999 0.09999999999999998 0.09999999999999998 0.1335 0.657 0.1 0.1 0.143 0.6475 0.1 0.1 0.1525 0.6285 0.09999999999999999 0.09999999999999999 0.1715 0.6095 0.1 0.1 0.1905 0.6095 0.1 0.1 0.1905 0.7855000000000001 0.1 0.05 0.0645 0.7855000000000001 0.1 0.05 0.0645 0.7855000000000001 0.1 0.05 0.0645 0.776 0.1 0.05 0.07400000000000001 0.776 0.1 0.05 0.07400000000000001 0.776 0.1 0.05 0.07400000000000001 0.7664999999999999 0.09999999999999998 0.04999999999999999 0.08349999999999999 0.7569999999999999 0.1 0.05 0.093 0.7475000000000001 0.1 0.05 0.1025 0.7284999999999999 0.09999999999999999 0.05 0.1215 0.7095 0.1 0.05 0.1405 0.7095 0.1 0.05 0.1405 0.7855000000000001 0.1 0.05 0.0645 0.7855000000000001 0.1 0.05 0.0645 0.7855000000000001 0.1 0.05 0.0645 0.776 0.1 0.05 0.07400000000000001 0.776 0.1 0.05 0.07400000000000001 0.776 0.1 0.05 0.07400000000000001 0.7664999999999999 0.09999999999999998 0.04999999999999999 0.08349999999999999 0.7569999999999999 0.1 0.05 0.093 0.7475000000000001 0.1 0.05 0.1025 0.7284999999999999 0.09999999999999999 0.05 0.1215 0.7095 0.1 0.05 0.1405 0.7095 0.1 0.05 0.1405 0.5855 0.2 0.1 0.1145 0.5855 0.2 0.1 0.1145 0.5855 0.2 0.1 0.1145 0.576 0.2 0.1 0.124 0.576 0.2 0.1 0.124 0.576 0.2 0.1 0.124 0.5665 0.2 0.09999999999999998 0.1335 0.5569999999999999 0.2 0.1 0.143 0.5475 0.2 0.1 0.1525 0.5285 0.2 0.09999999999999999 0.1715 0.5095000000000001 0.2 0.1 0.1905 0.5095000000000001 0.2 0.1 0.1905 0.4855 0.15 0.2 0.1645 0.4855 0.15 0.2 0.1645 0.4855 0.15 0.2 0.1645 0.476 0.15 0.2 0.174 0.476 0.15 0.2 0.174 0.476 0.15 0.2 0.174 0.4664999999999999 0.15 0.2 0.1835 0.457 0.15 0.2 0.193 0.4475 0.15 0.2 0.2025 0.4285 0.15 0.2 0.2215 0.4095 0.15 0.2 0.2405 0.4095 0.15 0.2 0.2405 0.4855 0.1 0.2 0.2145 0.4855 0.1 0.2 0.2145 0.4855 0.1 0.2 0.2145 0.476 0.1 0.2 0.224 0.476 0.1 0.2 0.224 0.476 0.1 0.2 0.224 0.4664999999999999 0.09999999999999998 0.2 0.2335 0.457 0.1 0.2 0.243 0.4475 0.1 0.2 0.2525 0.4285 0.09999999999999999 0.2 0.2715 0.4095 0.1 0.2 0.2905 0.4095 0.1 0.2 0.2905 0.4855 0.1 0.2 0.2145 0.4855 0.1 0.2 0.2145 0.4855 0.1 0.2 0.2145 0.476 0.1 0.2 0.224 0.476 0.1 0.2 0.224 0.476 0.1 0.2 0.224 0.4664999999999999 0.09999999999999998 0.2 0.2335 0.457 0.1 0.2 0.243 0.4475 0.1 0.2 0.2525 0.4285 0.09999999999999999 0.2 0.2715 0.4095 0.1 0.2 0.2905 0.4095 0.1 0.2 0.2905 0.6854999999999999 0.1 0.1 0.1145 0.6854999999999999 0.1 0.1 0.1145 0.6854999999999999 0.1 0.1 0.1145 0.6759999999999999 0.1 0.1 0.124 0.6759999999999999 0.1 0.1 0.124 0.6759999999999999 0.1 0.1 0.124 0.6664999999999999 0.09999999999999998 0.09999999999999998 0.1335 0.657 0.1 0.1 0.143 0.6475 0.1 0.1 0.1525 0.6285 0.09999999999999999 0.09999999999999999 0.1715 0.6095 0.1 0.1 0.1905 0.6095 0.1 0.1 0.1905 0.5855 0.15 0.15 0.1145 0.5855 0.15 0.15 0.1145 0.5855 0.15 0.15 0.1145 0.576 0.15 0.15 0.124 0.576 0.15 0.15 0.124 0.576 0.15 0.15 0.124 0.5665 0.15 0.15 0.1335 0.5569999999999999 0.15 0.15 0.143 0.5475 0.15 0.15 0.1525 0.5285 0.15 0.15 0.1715 0.5095000000000001 0.15 0.15 0.1905 0.5095000000000001 0.15 0.15 0.1905 0.6854999999999999 0.1 0.1 0.1145 0.6854999999999999 0.1 0.1 0.1145 0.6854999999999999 0.1 0.1 0.1145 0.6759999999999999 0.1 0.1 0.124 0.6759999999999999 0.1 0.1 0.124 0.6759999999999999 0.1 0.1 0.124 0.6664999999999999 0.09999999999999998 0.09999999999999998 0.1335 0.657 0.1 0.1 0.143 0.6475 0.1 0.1 0.1525 0.6285 0.09999999999999999 0.09999999999999999 0.1715 0.6095 0.1 0.1 0.1905 0.6095 0.1 0.1 0.1905 0.6854999999999999 0.1 0.1 0.1145 0.6854999999999999 0.1 0.1 0.1145 0.6854999999999999 0.1 0.1 0.1145 0.6759999999999999 0.1 0.1 0.124 0.6759999999999999 0.1 0.1 0.124 0.6759999999999999 0.1 0.1 0.124 0.6664999999999999 0.09999999999999998 0.09999999999999998 0.1335 0.657 0.1 0.1 0.143 0.6475 0.1 0.1 0.1525 0.6285 0.09999999999999999 0.09999999999999999 0.1715 0.6095 0.1 0.1 0.1905 0.6095 0.1 0.1 0.1905 0.3855 0.2 0.2 0.2145 0.3855 0.2 0.2 0.2145 0.3855 0.2 0.2 0.2145 0.3760000000000001 0.2 0.2 0.224 0.3760000000000001 0.2 0.2 0.224 0.3760000000000001 0.2 0.2 0.224 0.3664999999999999 0.2 0.2 0.2335 0.357 0.2 0.2 0.243 0.3475 0.2 0.2 0.2525 0.3285 0.2 0.2 0.2715 0.3095 0.2 0.2 0.2905 0.3095 0.2 0.2 0.2905 0.3855 0.15 0.2 0.2645 0.3855 0.15 0.2 0.2645 0.3855 0.15 0.2 0.2645 0.3760000000000001 0.15 0.2 0.274 0.3760000000000001 0.15 0.2 0.274 0.3760000000000001 0.15 0.2 0.274 0.3664999999999999 0.15 0.2 0.2835 0.357 0.15 0.2 0.293 0.3475 0.15 0.2 0.3025 0.3285 0.15 0.2 0.3215 0.3095 0.15 0.2 0.3405 0.3095 0.15 0.2 0.3405 0.3855 0.15 0.2 0.2645 0.3855 0.15 0.2 0.2645 0.3855 0.15 0.2 0.2645 0.3760000000000001 0.15 0.2 0.274 0.3760000000000001 0.15 0.2 0.274 0.3760000000000001 0.15 0.2 0.274 0.3664999999999999 0.15 0.2 0.2835 0.357 0.15 0.2 0.293 0.3475 0.15 0.2 0.3025 0.3285 0.15 0.2 0.3215 0.3095 0.15 0.2 0.3405 0.3095 0.15 0.2 0.3405 0.3855 0.15 0.2 0.2645 0.3855 0.15 0.2 0.2645 0.3855 0.15 0.2 0.2645 0.3760000000000001 0.15 0.2 0.274 0.3760000000000001 0.15 0.2 0.274 0.3760000000000001 0.15 0.2 0.274 0.3664999999999999 0.15 0.2 0.2835 0.357 0.15 0.2 0.293 0.3475 0.15 0.2 0.3025 0.3285 0.15 0.2 0.3215 0.3095 0.15 0.2 0.3405 0.3095 0.15 0.2 0.3405 0.3855 0.2 0.2 0.2145 0.3855 0.2 0.2 0.2145 0.3855 0.2 0.2 0.2145 0.3760000000000001 0.2 0.2 0.224 0.3760000000000001 0.2 0.2 0.224 0.3760000000000001 0.2 0.2 0.224 0.3664999999999999 0.2 0.2 0.2335 0.357 0.2 0.2 0.243 0.3475 0.2 0.2 0.2525 0.3285 0.2 0.2 0.2715 0.3095 0.2 0.2 0.2905 0.3095 0.2 0.2 0.2905 0.4355 0.2 0.15 0.2145 0.4355 0.2 0.15 0.2145 0.4355 0.2 0.15 0.2145 0.4260000000000001 0.2 0.15 0.224 0.4260000000000001 0.2 0.15 0.224 0.4260000000000001 0.2 0.15 0.224 0.4164999999999999 0.2 0.15 0.2335 0.407 0.2 0.15 0.243 0.3975 0.2 0.15 0.2525 0.3785 0.2 0.15 0.2715 0.3595 0.2 0.15 0.2905 0.3595 0.2 0.15 0.2905 0.5855 0.15 0.1 0.1645 0.5855 0.15 0.1 0.1645 0.5855 0.15 0.1 0.1645 0.576 0.15 0.1 0.174 0.576 0.15 0.1 0.174 0.576 0.15 0.1 0.174 0.5665 0.15 0.09999999999999998 0.1835 0.5569999999999999 0.15 0.1 0.193 0.5475 0.15 0.1 0.2025 0.5285 0.15 0.09999999999999999 0.2215 0.5095000000000001 0.15 0.1 0.2405 0.5095000000000001 0.15 0.1 0.2405 0.5855 0.15 0.1 0.1645 0.5855 0.15 0.1 0.1645 0.5855 0.15 0.1 0.1645 0.576 0.15 0.1 0.174 0.576 0.15 0.1 0.174 0.576 0.15 0.1 0.174 0.5665 0.15 0.09999999999999998 0.1835 0.5569999999999999 0.15 0.1 0.193 0.5475 0.15 0.1 0.2025 0.5285 0.15 0.09999999999999999 0.2215 0.5095000000000001 0.15 0.1 0.2405 0.5095000000000001 0.15 0.1 0.2405 0.5355 0.15 0.15 0.1645 0.5355 0.15 0.15 0.1645 0.5355 0.15 0.15 0.1645 0.526 0.15 0.15 0.174 0.526 0.15 0.15 0.174 0.526 0.15 0.15 0.174 0.5165 0.15 0.15 0.1835 0.507 0.15 0.15 0.193 0.4975 0.15 0.15 0.2025 0.4785 0.15 0.15 0.2215 0.4595 0.15 0.15 0.2405 0.4595 0.15 0.15 0.2405 0.3855 0.15 0.2 0.2645 0.3855 0.15 0.2 0.2645 0.3855 0.15 0.2 0.2645 0.3760000000000001 0.15 0.2 0.274 0.3760000000000001 0.15 0.2 0.274 0.3760000000000001 0.15 0.2 0.274 0.3664999999999999 0.15 0.2 0.2835 0.357 0.15 0.2 0.293 0.3475 0.15 0.2 0.3025 0.3285 0.15 0.2 0.3215 0.3095 0.15 0.2 0.3405 0.3095 0.15 0.2 0.3405 0.3855 0.15 0.2 0.2645 0.3855 0.15 0.2 0.2645 0.3855 0.15 0.2 0.2645 0.3760000000000001 0.15 0.2 0.274 0.3760000000000001 0.15 0.2 0.274 0.3760000000000001 0.15 0.2 0.274 0.3664999999999999 0.15 0.2 0.2835 0.357 0.15 0.2 0.293 0.3475 0.15 0.2 0.3025 0.3285 0.15 0.2 0.3215 0.3095 0.15 0.2 0.3405 0.3095 0.15 0.2 0.3405 0.3855 0.15 0.2 0.2645 0.3855 0.15 0.2 0.2645 0.3855 0.15 0.2 0.2645 0.3760000000000001 0.15 0.2 0.274 0.3760000000000001 0.15 0.2 0.274 0.3760000000000001 0.15 0.2 0.274 0.3664999999999999 0.15 0.2 0.2835 0.357 0.15 0.2 0.293 0.3475 0.15 0.2 0.3025 0.3285 0.15 0.2 0.3215 0.3095 0.15 0.2 0.3405 0.3095 0.15 0.2 0.3405 0.5355 0.15 0.15 0.1645 0.5355 0.15 0.15 0.1645 0.5355 0.15 0.15 0.1645 0.526 0.15 0.15 0.174 0.526 0.15 0.15 0.174 0.526 0.15 0.15 0.174 0.5165 0.15 0.15 0.1835 0.507 0.15 0.15 0.193 0.4975 0.15 0.15 0.2025 0.4785 0.15 0.15 0.2215 0.4595 0.15 0.15 0.2405 0.4595 0.15 0.15 0.2405 0.4355 0.2 0.15 0.2145 0.4355 0.2 0.15 0.2145 0.4355 0.2 0.15 0.2145 0.4260000000000001 0.2 0.15 0.224 0.4260000000000001 0.2 0.15 0.224 0.4260000000000001 0.2 0.15 0.224 0.4164999999999999 0.2 0.15 0.2335 0.407 0.2 0.15 0.243 0.3975 0.2 0.15 0.2525 0.3785 0.2 0.15 0.2715 0.3595 0.2 0.15 0.2905 0.3595 0.2 0.15 0.2905 0.5855 0.15 0.1 0.1645 0.5855 0.15 0.1 0.1645 0.5855 0.15 0.1 0.1645 0.576 0.15 0.1 0.174 0.576 0.15 0.1 0.174 0.576 0.15 0.1 0.174 0.5665 0.15 0.09999999999999998 0.1835 0.5569999999999999 0.15 0.1 0.193 0.5475 0.15 0.1 0.2025 0.5285 0.15 0.09999999999999999 0.2215 0.5095000000000001 0.15 0.1 0.2405 0.5095000000000001 0.15 0.1 0.2405 0.5855 0.15 0.1 0.1645 0.5855 0.15 0.1 0.1645 0.5855 0.15 0.1 0.1645 0.576 0.15 0.1 0.174 0.576 0.15 0.1 0.174 0.576 0.15 0.1 0.174 0.5665 0.15 0.09999999999999998 0.1835 0.5569999999999999 0.15 0.1 0.193 0.5475 0.15 0.1 0.2025 0.5285 0.15 0.09999999999999999 0.2215 0.5095000000000001 0.15 0.1 0.2405 0.5095000000000001 0.15 0.1 0.2405 0.9 0.1 0 0 0.9 0.1 0 0 0.9 0.1 0 0 0.9 0.1 0 0 0.9 0.1 0 0 0.9 0.1 0 0 0.8999999999999999 0.09999999999999998 0 0 0.9 0.1 0 0 0.9 0.1 0 0 0.8999999999999999 0.09999999999999999 0 0 0.9 0.1 0 0 0.9 0.1 0 0 0.9 0.1 0 0 0.9 0.1 0 0 0.9 0.1 0 0 0.9 0.1 0 0 0.9 0.1 0 0 0.9 0.1 0 0 0.8999999999999999 0.09999999999999998 0 0 0.9 0.1 0 0 0.9 0.1 0 0 0.8999999999999999 0.09999999999999999 0 0 0.9 0.1 0 0 0.9 0.1 0 0 0.75 0.1 0 0.15 0.75 0.1 0 0.15 0.75 0.1 0 0.15 0.75 0.1 0 0.15 0.75 0.1 0 0.15 0.75 0.1 0 0.15 0.7499999999999999 0.09999999999999998 0 0.15 0.75 0.1 0 0.15 0.75 0.1 0 0.15 0.75 0.09999999999999999 0 0.15 0.75 0.1 0 0.15 0.75 0.1 0 0.15 0.75 0.1 0 0.15 0.75 0.1 0 0.15 0.75 0.1 0 0.15 0.75 0.1 0 0.15 0.75 0.1 0 0.15 0.75 0.1 0 0.15 0.7499999999999999 0.09999999999999998 0 0.15 0.75 0.1 0 0.15 0.75 0.1 0 0.15 0.75 0.09999999999999999 0 0.15 0.75 0.1 0 0.15 0.75 0.1 0 0.15 0.8 0.1 0 0.1 0.8 0.1 0 0.1 0.8 0.1 0 0.1 0.8 0.1 0 0.1 0.8 0.1 0 0.1 0.8 0.1 0 0.1 0.7999999999999998 0.09999999999999998 0 0.09999999999999998 0.8 0.1 0 0.1 0.8 0.1 0 0.1 0.7999999999999999 0.09999999999999999 0 0.09999999999999999 0.8 0.1 0 0.1 0.8 0.1 0 0.1 0.8 0.1 0 0.1 0.8 0.1 0 0.1 0.8 0.1 0 0.1 0.8 0.1 0 0.1 0.8 0.1 0 0.1 0.8 0.1 0 0.1 0.7999999999999998 0.09999999999999998 0 0.09999999999999998 0.8 0.1 0 0.1 0.8 0.1 0 0.1 0.7999999999999999 0.09999999999999999 0 0.09999999999999999 0.8 0.1 0 0.1 0.8 0.1 0 0.1 0.9 0.05 0 0.05 0.9 0.05 0 0.05 0.9 0.05 0 0.05 0.9 0.05 0 0.05 0.9 0.05 0 0.05 0.9 0.05 0 0.05 0.8999999999999999 0.04999999999999999 0 0.04999999999999999 0.9 0.05 0 0.05 0.9 0.05 0 0.05 0.8999999999999999 0.05 0 0.05 0.9 0.05 0 0.05 0.9 0.05 0 0.05 0.9 0.05 0 0.05 0.9 0.05 0 0.05 0.9 0.05 0 0.05 0.9 0.05 0 0.05 0.9 0.05 0 0.05 0.9 0.05 0 0.05 0.8999999999999999 0.04999999999999999 0 0.04999999999999999 0.9 0.05 0 0.05 0.9 0.05 0 0.05 0.8999999999999999 0.05 0 0.05 0.9 0.05 0 0.05 0.9 0.05 0 0.05 0.7 0.1 0 0.2 0.7 0.1 0 0.2 0.7 0.1 0 0.2 0.7 0.1 0 0.2 0.7 0.1 0 0.2 0.7 0.1 0 0.2 0.6999999999999998 0.09999999999999998 0 0.2 0.7 0.1 0 0.2 0.7 0.1 0 0.2 0.7 0.09999999999999999 0 0.2 0.7 0.1 0 0.2 0.7 0.1 0 0.2 0.7 0.1 0 0.2 0.7 0.1 0 0.2 0.7 0.1 0 0.2 0.7 0.1 0 0.2 0.7 0.1 0 0.2 0.7 0.1 0 0.2 0.6999999999999998 0.09999999999999998 0 0.2 0.7 0.1 0 0.2 0.7 0.1 0 0.2 0.7 0.09999999999999999 0 0.2 0.7 0.1 0 0.2 0.7 0.1 0 0.2 0.7 0.1 0 0.2 0.7 0.1 0 0.2 0.7 0.1 0 0.2 0.7 0.1 0 0.2 0.7 0.1 0 0.2 0.7 0.1 0 0.2 0.6999999999999998 0.09999999999999998 0 0.2 0.7 0.1 0 0.2 0.7 0.1 0 0.2 0.7 0.09999999999999999 0 0.2 0.7 0.1 0 0.2 0.7 0.1 0 0.2 0.7 0.1 0 0.2 0.7 0.1 0 0.2 0.7 0.1 0 0.2 0.7 0.1 0 0.2 0.7 0.1 0 0.2 0.7 0.1 0 0.2 0.6999999999999998 0.09999999999999998 0 0.2 0.7 0.1 0 0.2 0.7 0.1 0 0.2 0.7 0.09999999999999999 0 0.2 0.7 0.1 0 0.2 0.7 0.1 0 0.2 0.7 0.1 0 0.2 0.7 0.1 0 0.2 0.7 0.1 0 0.2 0.7 0.1 0 0.2 0.7 0.1 0 0.2 0.7 0.1 0 0.2 0.6999999999999998 0.09999999999999998 0 0.2 0.7 0.1 0 0.2 0.7 0.1 0 0.2 0.7 0.09999999999999999 0 0.2 0.7 0.1 0 0.2 0.7 0.1 0 0.2 0.7 0.1 0 0.2 0.7 0.1 0 0.2 0.7 0.1 0 0.2 0.7 0.1 0 0.2 0.7 0.1 0 0.2 0.7 0.1 0 0.2 0.6999999999999998 0.09999999999999998 0 0.2 0.7 0.1 0 0.2 0.7 0.1 0 0.2 0.7 0.09999999999999999 0 0.2 0.7 0.1 0 0.2 0.7 0.1 0 0.2 0.8 0.1 0 0.1 0.8 0.1 0 0.1 0.8 0.1 0 0.1 0.8 0.1 0 0.1 0.8 0.1 0 0.1 0.8 0.1 0 0.1 0.7999999999999998 0.09999999999999998 0 0.09999999999999998 0.8 0.1 0 0.1 0.8 0.1 0 0.1 0.7999999999999999 0.09999999999999999 0 0.09999999999999999 0.8 0.1 0 0.1 0.8 0.1 0 0.1 0.8 0.1 0 0.1 0.8 0.1 0 0.1 0.8 0.1 0 0.1 0.8 0.1 0 0.1 0.8 0.1 0 0.1 0.8 0.1 0 0.1 0.7999999999999998 0.09999999999999998 0 0.09999999999999998 0.8 0.1 0 0.1 0.8 0.1 0 0.1 0.7999999999999999 0.09999999999999999 0 0.09999999999999999 0.8 0.1 0 0.1 0.8 0.1 0 0.1 0.5 0.15 0 0.35 0.5 0.15 0 0.35 0.5 0.15 0 0.35 0.5 0.15 0 0.35 0.5 0.15 0 0.35 0.5 0.15 0 0.35 0.4999999999999999 0.15 0 0.3499999999999999 0.5 0.15 0 0.35 0.5 0.15 0 0.35 0.5 0.15 0 0.35 0.5 0.15 0 0.35 0.5 0.15 0 0.35 0.5 0.15 0 0.35 0.5 0.15 0 0.35 0.5 0.15 0 0.35 0.5 0.15 0 0.35 0.5 0.15 0 0.35 0.5 0.15 0 0.35 0.4999999999999999 0.15 0 0.3499999999999999 0.5 0.15 0 0.35 0.5 0.15 0 0.35 0.5 0.15 0 0.35 0.5 0.15 0 0.35 0.5 0.15 0 0.35 0.5 0.1 0 0.4 0.5 0.1 0 0.4 0.5 0.1 0 0.4 0.5 0.1 0 0.4 0.5 0.1 0 0.4 0.5 0.1 0 0.4 0.4999999999999999 0.09999999999999998 0 0.3999999999999999 0.5 0.1 0 0.4 0.5 0.1 0 0.4 0.5 0.09999999999999999 0 0.4 0.5 0.1 0 0.4 0.5 0.1 0 0.4 0.5 0.1 0 0.4 0.5 0.1 0 0.4 0.5 0.1 0 0.4 0.5 0.1 0 0.4 0.5 0.1 0 0.4 0.5 0.1 0 0.4 0.4999999999999999 0.09999999999999998 0 0.3999999999999999 0.5 0.1 0 0.4 0.5 0.1 0 0.4 0.5 0.09999999999999999 0 0.4 0.5 0.1 0 0.4 0.5 0.1 0 0.4 0.6 0.15 0 0.25 0.6 0.15 0 0.25 0.6 0.15 0 0.25 0.6 0.15 0 0.25 0.6 0.15 0 0.25 0.6 0.15 0 0.25 0.6 0.15 0 0.25 0.6 0.15 0 0.25 0.6 0.15 0 0.25 0.6 0.15 0 0.25 0.6000000000000001 0.15 0 0.25 0.6000000000000001 0.15 0 0.25 0.6 0.15 0 0.25 0.6 0.15 0 0.25 0.6 0.15 0 0.25 0.6 0.15 0 0.25 0.6 0.15 0 0.25 0.6 0.15 0 0.25 0.6 0.15 0 0.25 0.6 0.15 0 0.25 0.6 0.15 0 0.25 0.6 0.15 0 0.25 0.6000000000000001 0.15 0 0.25 0.6000000000000001 0.15 0 0.25 0.7 0.1 0 0.2 0.7 0.1 0 0.2 0.7 0.1 0 0.2 0.7 0.1 0 0.2 0.7 0.1 0 0.2 0.7 0.1 0 0.2 0.6999999999999998 0.09999999999999998 0 0.2 0.7 0.1 0 0.2 0.7 0.1 0 0.2 0.7 0.09999999999999999 0 0.2 0.7 0.1 0 0.2 0.7 0.1 0 0.2 0.7 0.1 0 0.2 0.7 0.1 0 0.2 0.7 0.1 0 0.2 0.7 0.1 0 0.2 0.7 0.1 0 0.2 0.7 0.1 0 0.2 0.6999999999999998 0.09999999999999998 0 0.2 0.7 0.1 0 0.2 0.7 0.1 0 0.2 0.7 0.09999999999999999 0 0.2 0.7 0.1 0 0.2 0.7 0.1 0 0.2 0.4 0.15 0 0.45 0.4 0.15 0 0.45 0.4 0.15 0 0.45 0.4 0.15 0 0.45 0.4 0.15 0 0.45 0.4 0.15 0 0.45 0.3999999999999999 0.15 0 0.45 0.4 0.15 0 0.45 0.4 0.15 0 0.45 0.4 0.15 0 0.45 0.4 0.15 0 0.45 0.4 0.15 0 0.45 0.4 0.15 0 0.45 0.4 0.15 0 0.45 0.4 0.15 0 0.45 0.4 0.15 0 0.45 0.4 0.15 0 0.45 0.4 0.15 0 0.45 0.3999999999999999 0.15 0 0.45 0.4 0.15 0 0.45 0.4 0.15 0 0.45 0.4 0.15 0 0.45 0.4 0.15 0 0.45 0.4 0.15 0 0.45 0.4 0.15 0 0.45 0.4 0.15 0 0.45 0.4 0.15 0 0.45 0.4 0.15 0 0.45 0.4 0.15 0 0.45 0.4 0.15 0 0.45 0.3999999999999999 0.15 0 0.45 0.4 0.15 0 0.45 0.4 0.15 0 0.45 0.4 0.15 0 0.45 0.4 0.15 0 0.45 0.4 0.15 0 0.45 0.4 0.15 0 0.45 0.4 0.15 0 0.45 0.4 0.15 0 0.45 0.4 0.15 0 0.45 0.4 0.15 0 0.45 0.4 0.15 0 0.45 0.3999999999999999 0.15 0 0.45 0.4 0.15 0 0.45 0.4 0.15 0 0.45 0.4 0.15 0 0.45 0.4 0.15 0 0.45 0.4 0.15 0 0.45 0.45 0.2 0 0.35 0.45 0.2 0 0.35 0.45 0.2 0 0.35 0.45 0.2 0 0.35 0.45 0.2 0 0.35 0.45 0.2 0 0.35 0.45 0.2 0 0.3499999999999999 0.45 0.2 0 0.35 0.45 0.2 0 0.35 0.45 0.2 0 0.35 0.45 0.2 0 0.35 0.45 0.2 0 0.35 0.45 0.2 0 0.35 0.45 0.2 0 0.35 0.45 0.2 0 0.35 0.45 0.2 0 0.35 0.45 0.2 0 0.35 0.45 0.2 0 0.35 0.45 0.2 0 0.3499999999999999 0.45 0.2 0 0.35 0.45 0.2 0 0.35 0.45 0.2 0 0.35 0.45 0.2 0 0.35 0.45 0.2 0 0.35 0.6 0.15 0 0.25 0.6 0.15 0 0.25 0.6 0.15 0 0.25 0.6 0.15 0 0.25 0.6 0.15 0 0.25 0.6 0.15 0 0.25 0.6 0.15 0 0.25 0.6 0.15 0 0.25 0.6 0.15 0 0.25 0.6 0.15 0 0.25 0.6000000000000001 0.15 0 0.25 0.6000000000000001 0.15 0 0.25 0.6 0.15 0 0.25 0.6 0.15 0 0.25 0.6 0.15 0 0.25 0.6 0.15 0 0.25 0.6 0.15 0 0.25 0.6 0.15 0 0.25 0.6 0.15 0 0.25 0.6 0.15 0 0.25 0.6 0.15 0 0.25 0.6 0.15 0 0.25 0.6000000000000001 0.15 0 0.25 0.6000000000000001 0.15 0 0.25 0.4 0.15 0 0.45 0.4 0.15 0 0.45 0.4 0.15 0 0.45 0.4 0.15 0 0.45 0.4 0.15 0 0.45 0.4 0.15 0 0.45 0.3999999999999999 0.15 0 0.45 0.4 0.15 0 0.45 0.4 0.15 0 0.45 0.4 0.15 0 0.45 0.4 0.15 0 0.45 0.4 0.15 0 0.45 0.4 0.15 0 0.45 0.4 0.15 0 0.45 0.4 0.15 0 0.45 0.4 0.15 0 0.45 0.4 0.15 0 0.45 0.4 0.15 0 0.45 0.3999999999999999 0.15 0 0.45 0.4 0.15 0 0.45 0.4 0.15 0 0.45 0.4 0.15 0 0.45 0.4 0.15 0 0.45 0.4 0.15 0 0.45 0.4 0.15 0 0.45 0.4 0.15 0 0.45 0.4 0.15 0 0.45 0.4 0.15 0 0.45 0.4 0.15 0 0.45 0.4 0.15 0 0.45 0.3999999999999999 0.15 0 0.45 0.4 0.15 0 0.45 0.4 0.15 0 0.45 0.4 0.15 0 0.45 0.4 0.15 0 0.45 0.4 0.15 0 0.45 0.4 0.15 0 0.45 0.4 0.15 0 0.45 0.4 0.15 0 0.45 0.4 0.15 0 0.45 0.4 0.15 0 0.45 0.4 0.15 0 0.45 0.3999999999999999 0.15 0 0.45 0.4 0.15 0 0.45 0.4 0.15 0 0.45 0.4 0.15 0 0.45 0.4 0.15 0 0.45 0.4 0.15 0 0.45 0.45 0.2 0 0.35 0.45 0.2 0 0.35 0.45 0.2 0 0.35 0.45 0.2 0 0.35 0.45 0.2 0 0.35 0.45 0.2 0 0.35 0.45 0.2 0 0.3499999999999999 0.45 0.2 0 0.35 0.45 0.2 0 0.35 0.45 0.2 0 0.35 0.45 0.2 0 0.35 0.45 0.2 0 0.35 0.45 0.2 0 0.35 0.45 0.2 0 0.35 0.45 0.2 0 0.35 0.45 0.2 0 0.35 0.45 0.2 0 0.35 0.45 0.2 0 0.35 0.45 0.2 0 0.3499999999999999 0.45 0.2 0 0.35 0.45 0.2 0 0.35 0.45 0.2 0 0.35 0.45 0.2 0 0.35 0.45 0.2 0 0.35 0.6 0.15 0 0.25 0.6 0.15 0 0.25 0.6 0.15 0 0.25 0.6 0.15 0 0.25 0.6 0.15 0 0.25 0.6 0.15 0 0.25 0.6 0.15 0 0.25 0.6 0.15 0 0.25 0.6 0.15 0 0.25 0.6 0.15 0 0.25 0.6000000000000001 0.15 0 0.25 0.6000000000000001 0.15 0 0.25 0.6 0.15 0 0.25 0.6 0.15 0 0.25 0.6 0.15 0 0.25 0.6 0.15 0 0.25 0.6 0.15 0 0.25 0.6 0.15 0 0.25 0.6 0.15 0 0.25 0.6 0.15 0 0.25 0.6 0.15 0 0.25 0.6 0.15 0 0.25 0.6000000000000001 0.15 0 0.25 0.6000000000000001 0.15 0 0.25 0.9 0.1 0 0 0.9 0.1 0 0 0.9 0.1 0 0 0.9 0.1 0 0 0.9 0.1 0 0 0.9 0.1 0 0 0.8999999999999999 0.09999999999999998 0 0 0.9 0.1 0 0 0.9 0.1 0 0 0.8999999999999999 0.09999999999999999 0 0 0.9 0.1 0 0 0.9 0.1 0 0 0.9 0.1 0 0 0.9 0.1 0 0 0.9 0.1 0 0 0.9 0.1 0 0 0.9 0.1 0 0 0.9 0.1 0 0 0.8999999999999999 0.09999999999999998 0 0 0.9 0.1 0 0 0.9 0.1 0 0 0.8999999999999999 0.09999999999999999 0 0 0.9 0.1 0 0 0.9 0.1 0 0 0.75 0.1 0 0.15 0.75 0.1 0 0.15 0.75 0.1 0 0.15 0.75 0.1 0 0.15 0.75 0.1 0 0.15 0.75 0.1 0 0.15 0.7499999999999999 0.09999999999999998 0 0.15 0.75 0.1 0 0.15 0.75 0.1 0 0.15 0.75 0.09999999999999999 0 0.15 0.75 0.1 0 0.15 0.75 0.1 0 0.15 0.75 0.1 0 0.15 0.75 0.1 0 0.15 0.75 0.1 0 0.15 0.75 0.1 0 0.15 0.75 0.1 0 0.15 0.75 0.1 0 0.15 0.7499999999999999 0.09999999999999998 0 0.15 0.75 0.1 0 0.15 0.75 0.1 0 0.15 0.75 0.09999999999999999 0 0.15 0.75 0.1 0 0.15 0.75 0.1 0 0.15 0.8 0.1 0 0.1 0.8 0.1 0 0.1 0.8 0.1 0 0.1 0.8 0.1 0 0.1 0.8 0.1 0 0.1 0.8 0.1 0 0.1 0.7999999999999998 0.09999999999999998 0 0.09999999999999998 0.8 0.1 0 0.1 0.8 0.1 0 0.1 0.7999999999999999 0.09999999999999999 0 0.09999999999999999 0.8 0.1 0 0.1 0.8 0.1 0 0.1 0.8 0.1 0 0.1 0.8 0.1 0 0.1 0.8 0.1 0 0.1 0.8 0.1 0 0.1 0.8 0.1 0 0.1 0.8 0.1 0 0.1 0.7999999999999998 0.09999999999999998 0 0.09999999999999998 0.8 0.1 0 0.1 0.8 0.1 0 0.1 0.7999999999999999 0.09999999999999999 0 0.09999999999999999 0.8 0.1 0 0.1 0.8 0.1 0 0.1 0.9 0.05 0 0.05 0.9 0.05 0 0.05 0.9 0.05 0 0.05 0.9 0.05 0 0.05 0.9 0.05 0 0.05 0.9 0.05 0 0.05 0.8999999999999999 0.04999999999999999 0 0.04999999999999999 0.9 0.05 0 0.05 0.9 0.05 0 0.05 0.8999999999999999 0.05 0 0.05 0.9 0.05 0 0.05 0.9 0.05 0 0.05 0.9 0.05 0 0.05 0.9 0.05 0 0.05 0.9 0.05 0 0.05 0.9 0.05 0 0.05 0.9 0.05 0 0.05 0.9 0.05 0 0.05 0.8999999999999999 0.04999999999999999 0 0.04999999999999999 0.9 0.05 0 0.05 0.9 0.05 0 0.05 0.8999999999999999 0.05 0 0.05 0.9 0.05 0 0.05 0.9 0.05 0 0.05 0.7 0.1 0 0.2 0.7 0.1 0 0.2 0.7 0.1 0 0.2 0.7 0.1 0 0.2 0.7 0.1 0 0.2 0.7 0.1 0 0.2 0.6999999999999998 0.09999999999999998 0 0.2 0.7 0.1 0 0.2 0.7 0.1 0 0.2 0.7 0.09999999999999999 0 0.2 0.7 0.1 0 0.2 0.7 0.1 0 0.2 0.7 0.1 0 0.2 0.7 0.1 0 0.2 0.7 0.1 0 0.2 0.7 0.1 0 0.2 0.7 0.1 0 0.2 0.7 0.1 0 0.2 0.6999999999999998 0.09999999999999998 0 0.2 0.7 0.1 0 0.2 0.7 0.1 0 0.2 0.7 0.09999999999999999 0 0.2 0.7 0.1 0 0.2 0.7 0.1 0 0.2 0.7 0.1 0 0.2 0.7 0.1 0 0.2 0.7 0.1 0 0.2 0.7 0.1 0 0.2 0.7 0.1 0 0.2 0.7 0.1 0 0.2 0.6999999999999998 0.09999999999999998 0 0.2 0.7 0.1 0 0.2 0.7 0.1 0 0.2 0.7 0.09999999999999999 0 0.2 0.7 0.1 0 0.2 0.7 0.1 0 0.2 0.7 0.1 0 0.2 0.7 0.1 0 0.2 0.7 0.1 0 0.2 0.7 0.1 0 0.2 0.7 0.1 0 0.2 0.7 0.1 0 0.2 0.6999999999999998 0.09999999999999998 0 0.2 0.7 0.1 0 0.2 0.7 0.1 0 0.2 0.7 0.09999999999999999 0 0.2 0.7 0.1 0 0.2 0.7 0.1 0 0.2 0.7 0.1 0 0.2 0.7 0.1 0 0.2 0.7 0.1 0 0.2 0.7 0.1 0 0.2 0.7 0.1 0 0.2 0.7 0.1 0 0.2 0.6999999999999998 0.09999999999999998 0 0.2 0.7 0.1 0 0.2 0.7 0.1 0 0.2 0.7 0.09999999999999999 0 0.2 0.7 0.1 0 0.2 0.7 0.1 0 0.2 0.7 0.1 0 0.2 0.7 0.1 0 0.2 0.7 0.1 0 0.2 0.7 0.1 0 0.2 0.7 0.1 0 0.2 0.7 0.1 0 0.2 0.6999999999999998 0.09999999999999998 0 0.2 0.7 0.1 0 0.2 0.7 0.1 0 0.2 0.7 0.09999999999999999 0 0.2 0.7 0.1 0 0.2 0.7 0.1 0 0.2 0.8 0.1 0 0.1 0.8 0.1 0 0.1 0.8 0.1 0 0.1 0.8 0.1 0 0.1 0.8 0.1 0 0.1 0.8 0.1 0 0.1 0.7999999999999998 0.09999999999999998 0 0.09999999999999998 0.8 0.1 0 0.1 0.8 0.1 0 0.1 0.7999999999999999 0.09999999999999999 0 0.09999999999999999 0.8 0.1 0 0.1 0.8 0.1 0 0.1 0.8 0.1 0 0.1 0.8 0.1 0 0.1 0.8 0.1 0 0.1 0.8 0.1 0 0.1 0.8 0.1 0 0.1 0.8 0.1 0 0.1 0.7999999999999998 0.09999999999999998 0 0.09999999999999998 0.8 0.1 0 0.1 0.8 0.1 0 0.1 0.7999999999999999 0.09999999999999999 0 0.09999999999999999 0.8 0.1 0 0.1 0.8 0.1 0 0.1 0.5 0.15 0 0.35 0.5 0.15 0 0.35 0.5 0.15 0 0.35 0.5 0.15 0 0.35 0.5 0.15 0 0.35 0.5 0.15 0 0.35 0.4999999999999999 0.15 0 0.3499999999999999 0.5 0.15 0 0.35 0.5 0.15 0 0.35 0.5 0.15 0 0.35 0.5 0.15 0 0.35 0.5 0.15 0 0.35 0.5 0.15 0 0.35 0.5 0.15 0 0.35 0.5 0.15 0 0.35 0.5 0.15 0 0.35 0.5 0.15 0 0.35 0.5 0.15 0 0.35 0.4999999999999999 0.15 0 0.3499999999999999 0.5 0.15 0 0.35 0.5 0.15 0 0.35 0.5 0.15 0 0.35 0.5 0.15 0 0.35 0.5 0.15 0 0.35 0.5 0.1 0 0.4 0.5 0.1 0 0.4 0.5 0.1 0 0.4 0.5 0.1 0 0.4 0.5 0.1 0 0.4 0.5 0.1 0 0.4 0.4999999999999999 0.09999999999999998 0 0.3999999999999999 0.5 0.1 0 0.4 0.5 0.1 0 0.4 0.5 0.09999999999999999 0 0.4 0.5 0.1 0 0.4 0.5 0.1 0 0.4 0.5 0.1 0 0.4 0.5 0.1 0 0.4 0.5 0.1 0 0.4 0.5 0.1 0 0.4 0.5 0.1 0 0.4 0.5 0.1 0 0.4 0.4999999999999999 0.09999999999999998 0 0.3999999999999999 0.5 0.1 0 0.4 0.5 0.1 0 0.4 0.5 0.09999999999999999 0 0.4 0.5 0.1 0 0.4 0.5 0.1 0 0.4 0.6 0.15 0 0.25 0.6 0.15 0 0.25 0.6 0.15 0 0.25 0.6 0.15 0 0.25 0.6 0.15 0 0.25 0.6 0.15 0 0.25 0.6 0.15 0 0.25 0.6 0.15 0 0.25 0.6 0.15 0 0.25 0.6 0.15 0 0.25 0.6000000000000001 0.15 0 0.25 0.6000000000000001 0.15 0 0.25 0.6 0.15 0 0.25 0.6 0.15 0 0.25 0.6 0.15 0 0.25 0.6 0.15 0 0.25 0.6 0.15 0 0.25 0.6 0.15 0 0.25 0.6 0.15 0 0.25 0.6 0.15 0 0.25 0.6 0.15 0 0.25 0.6 0.15 0 0.25 0.6000000000000001 0.15 0 0.25 0.6000000000000001 0.15 0 0.25 0.7 0.1 0 0.2 0.7 0.1 0 0.2 0.7 0.1 0 0.2 0.7 0.1 0 0.2 0.7 0.1 0 0.2 0.7 0.1 0 0.2 0.6999999999999998 0.09999999999999998 0 0.2 0.7 0.1 0 0.2 0.7 0.1 0 0.2 0.7 0.09999999999999999 0 0.2 0.7 0.1 0 0.2 0.7 0.1 0 0.2 0.7 0.1 0 0.2 0.7 0.1 0 0.2 0.7 0.1 0 0.2 0.7 0.1 0 0.2 0.7 0.1 0 0.2 0.7 0.1 0 0.2 0.6999999999999998 0.09999999999999998 0 0.2 0.7 0.1 0 0.2 0.7 0.1 0 0.2 0.7 0.09999999999999999 0 0.2 0.7 0.1 0 0.2 0.7 0.1 0 0.2 0.4 0.15 0 0.45 0.4 0.15 0 0.45 0.4 0.15 0 0.45 0.4 0.15 0 0.45 0.4 0.15 0 0.45 0.4 0.15 0 0.45 0.3999999999999999 0.15 0 0.45 0.4 0.15 0 0.45 0.4 0.15 0 0.45 0.4 0.15 0 0.45 0.4 0.15 0 0.45 0.4 0.15 0 0.45 0.4 0.15 0 0.45 0.4 0.15 0 0.45 0.4 0.15 0 0.45 0.4 0.15 0 0.45 0.4 0.15 0 0.45 0.4 0.15 0 0.45 0.3999999999999999 0.15 0 0.45 0.4 0.15 0 0.45 0.4 0.15 0 0.45 0.4 0.15 0 0.45 0.4 0.15 0 0.45 0.4 0.15 0 0.45 0.4 0.15 0 0.45 0.4 0.15 0 0.45 0.4 0.15 0 0.45 0.4 0.15 0 0.45 0.4 0.15 0 0.45 0.4 0.15 0 0.45 0.3999999999999999 0.15 0 0.45 0.4 0.15 0 0.45 0.4 0.15 0 0.45 0.4 0.15 0 0.45 0.4 0.15 0 0.45 0.4 0.15 0 0.45 0.4 0.15 0 0.45 0.4 0.15 0 0.45 0.4 0.15 0 0.45 0.4 0.15 0 0.45 0.4 0.15 0 0.45 0.4 0.15 0 0.45 0.3999999999999999 0.15 0 0.45 0.4 0.15 0 0.45 0.4 0.15 0 0.45 0.4 0.15 0 0.45 0.4 0.15 0 0.45 0.4 0.15 0 0.45 0.45 0.2 0 0.35 0.45 0.2 0 0.35 0.45 0.2 0 0.35 0.45 0.2 0 0.35 0.45 0.2 0 0.35 0.45 0.2 0 0.35 0.45 0.2 0 0.3499999999999999 0.45 0.2 0 0.35 0.45 0.2 0 0.35 0.45 0.2 0 0.35 0.45 0.2 0 0.35 0.45 0.2 0 0.35 0.45 0.2 0 0.35 0.45 0.2 0 0.35 0.45 0.2 0 0.35 0.45 0.2 0 0.35 0.45 0.2 0 0.35 0.45 0.2 0 0.35 0.45 0.2 0 0.3499999999999999 0.45 0.2 0 0.35 0.45 0.2 0 0.35 0.45 0.2 0 0.35 0.45 0.2 0 0.35 0.45 0.2 0 0.35 0.6 0.15 0 0.25 0.6 0.15 0 0.25 0.6 0.15 0 0.25 0.6 0.15 0 0.25 0.6 0.15 0 0.25 0.6 0.15 0 0.25 0.6 0.15 0 0.25 0.6 0.15 0 0.25 0.6 0.15 0 0.25 0.6 0.15 0 0.25 0.6000000000000001 0.15 0 0.25 0.6000000000000001 0.15 0 0.25 0.6 0.15 0 0.25 0.6 0.15 0 0.25 0.6 0.15 0 0.25 0.6 0.15 0 0.25 0.6 0.15 0 0.25 0.6 0.15 0 0.25 0.6 0.15 0 0.25 0.6 0.15 0 0.25 0.6 0.15 0 0.25 0.6 0.15 0 0.25 0.6000000000000001 0.15 0 0.25 0.6000000000000001 0.15 0 0.25 0.4 0.15 0 0.45 0.4 0.15 0 0.45 0.4 0.15 0 0.45 0.4 0.15 0 0.45 0.4 0.15 0 0.45 0.4 0.15 0 0.45 0.3999999999999999 0.15 0 0.45 0.4 0.15 0 0.45 0.4 0.15 0 0.45 0.4 0.15 0 0.45 0.4 0.15 0 0.45 0.4 0.15 0 0.45 0.4 0.15 0 0.45 0.4 0.15 0 0.45 0.4 0.15 0 0.45 0.4 0.15 0 0.45 0.4 0.15 0 0.45 0.4 0.15 0 0.45 0.3999999999999999 0.15 0 0.45 0.4 0.15 0 0.45 0.4 0.15 0 0.45 0.4 0.15 0 0.45 0.4 0.15 0 0.45 0.4 0.15 0 0.45 0.4 0.15 0 0.45 0.4 0.15 0 0.45 0.4 0.15 0 0.45 0.4 0.15 0 0.45 0.4 0.15 0 0.45 0.4 0.15 0 0.45 0.3999999999999999 0.15 0 0.45 0.4 0.15 0 0.45 0.4 0.15 0 0.45 0.4 0.15 0 0.45 0.4 0.15 0 0.45 0.4 0.15 0 0.45 0.4 0.15 0 0.45 0.4 0.15 0 0.45 0.4 0.15 0 0.45 0.4 0.15 0 0.45 0.4 0.15 0 0.45 0.4 0.15 0 0.45 0.3999999999999999 0.15 0 0.45 0.4 0.15 0 0.45 0.4 0.15 0 0.45 0.4 0.15 0 0.45 0.4 0.15 0 0.45 0.4 0.15 0 0.45 0.45 0.2 0 0.35 0.45 0.2 0 0.35 0.45 0.2 0 0.35 0.45 0.2 0 0.35 0.45 0.2 0 0.35 0.45 0.2 0 0.35 0.45 0.2 0 0.3499999999999999 0.45 0.2 0 0.35 0.45 0.2 0 0.35 0.45 0.2 0 0.35 0.45 0.2 0 0.35 0.45 0.2 0 0.35 0.45 0.2 0 0.35 0.45 0.2 0 0.35 0.45 0.2 0 0.35 0.45 0.2 0 0.35 0.45 0.2 0 0.35 0.45 0.2 0 0.35 0.45 0.2 0 0.3499999999999999 0.45 0.2 0 0.35 0.45 0.2 0 0.35 0.45 0.2 0 0.35 0.45 0.2 0 0.35 0.45 0.2 0 0.35 0.6 0.15 0 0.25 0.6 0.15 0 0.25 0.6 0.15 0 0.25 0.6 0.15 0 0.25 0.6 0.15 0 0.25 0.6 0.15 0 0.25 0.6 0.15 0 0.25 0.6 0.15 0 0.25 0.6 0.15 0 0.25 0.6 0.15 0 0.25 0.6000000000000001 0.15 0 0.25 0.6000000000000001 0.15 0 0.25 0.6 0.15 0 0.25 0.6 0.15 0 0.25 0.6 0.15 0 0.25 0.6 0.15 0 0.25 0.6 0.15 0 0.25 0.6 0.15 0 0.25 0.6 0.15 0 0.25 0.6 0.15 0 0.25 0.6 0.15 0 0.25 0.6 0.15 0 0.25 0.6000000000000001 0.15 0 0.25 0.6000000000000001 0.15 0 0.25 0.9328000000000001 0.03 0.01 0.0272 0.9328000000000001 0.03 0.01 0.0272 0.9236000000000001 0.03 0.01 0.0364 0.9144000000000001 0.03 0.01 0.04560000000000001 0.9144000000000001 0.03 0.01 0.04560000000000001 0.9052 0.03000000000000001 0.01 0.0548 0.896 0.03 0.01 0.064 0.8868 0.03 0.01 0.0732 0.8684000000000001 0.03 0.01 0.0916 0.8592000000000001 0.03 0.01 0.1008 0.8545999999999999 0.03 0.01 0.1054 0.8545999999999999 0.03 0.01 0.1054 0.9328000000000001 0.03 0.01 0.0272 0.9328000000000001 0.03 0.01 0.0272 0.9236000000000001 0.03 0.01 0.0364 0.9144000000000001 0.03 0.01 0.04560000000000001 0.9144000000000001 0.03 0.01 0.04560000000000001 0.9052 0.03000000000000001 0.01 0.0548 0.896 0.03 0.01 0.064 0.8868 0.03 0.01 0.0732 0.8684000000000001 0.03 0.01 0.0916 0.8592000000000001 0.03 0.01 0.1008 0.8545999999999999 0.03 0.01 0.1054 0.8545999999999999 0.03 0.01 0.1054 0.7828000000000002 0.1 0.05000000000000001 0.06720000000000001 0.7828000000000002 0.1 0.05000000000000001 0.06720000000000001 0.7736000000000001 0.1 0.05000000000000001 0.07640000000000001 0.7644 0.1 0.05 0.08560000000000001 0.7644 0.1 0.05 0.08560000000000001 0.7552000000000001 0.1 0.05 0.09480000000000001 0.746 0.1 0.05 0.104 0.7368 0.1 0.05 0.1132 0.7184 0.1 0.05 0.1316 0.7091999999999999 0.1 0.05 0.1408 0.7046 0.1 0.05 0.1454 0.7046 0.1 0.05 0.1454 0.7828000000000002 0.1 0.05000000000000001 0.06720000000000001 0.7828000000000002 0.1 0.05000000000000001 0.06720000000000001 0.7736000000000001 0.1 0.05000000000000001 0.07640000000000001 0.7644 0.1 0.05 0.08560000000000001 0.7644 0.1 0.05 0.08560000000000001 0.7552000000000001 0.1 0.05 0.09480000000000001 0.746 0.1 0.05 0.104 0.7368 0.1 0.05 0.1132 0.7184 0.1 0.05 0.1316 0.7091999999999999 0.1 0.05 0.1408 0.7046 0.1 0.05 0.1454 0.7046 0.1 0.05 0.1454 0.9328000000000001 0.03 0.01 0.0272 0.9328000000000001 0.03 0.01 0.0272 0.9236000000000001 0.03 0.01 0.0364 0.9144000000000001 0.03 0.01 0.04560000000000001 0.9144000000000001 0.03 0.01 0.04560000000000001 0.9052 0.03000000000000001 0.01 0.0548 0.896 0.03 0.01 0.064 0.8868 0.03 0.01 0.0732 0.8684000000000001 0.03 0.01 0.0916 0.8592000000000001 0.03 0.01 0.1008 0.8545999999999999 0.03 0.01 0.1054 0.8545999999999999 0.03 0.01 0.1054 0.9328000000000001 0.03 0.01 0.0272 0.9328000000000001 0.03 0.01 0.0272 0.9236000000000001 0.03 0.01 0.0364 0.9144000000000001 0.03 0.01 0.04560000000000001 0.9144000000000001 0.03 0.01 0.04560000000000001 0.9052 0.03000000000000001 0.01 0.0548 0.896 0.03 0.01 0.064 0.8868 0.03 0.01 0.0732 0.8684000000000001 0.03 0.01 0.0916 0.8592000000000001 0.03 0.01 0.1008 0.8545999999999999 0.03 0.01 0.1054 0.8545999999999999 0.03 0.01 0.1054 0.8828000000000001 0.05000000000000001 0.03 0.0372 0.8828000000000001 0.05000000000000001 0.03 0.0372 0.8736000000000002 0.05000000000000001 0.03 0.0464 0.8644000000000001 0.05 0.03 0.0556 0.8644000000000001 0.05 0.03 0.0556 0.8552000000000002 0.05 0.03000000000000001 0.06480000000000001 0.8460000000000001 0.05 0.03 0.074 0.8368000000000001 0.05 0.03 0.08320000000000001 0.8184 0.05 0.03 0.1016 0.8092 0.05 0.03 0.1108 0.8046 0.05 0.03 0.1154 0.8046 0.05 0.03 0.1154 0.8828000000000001 0.05000000000000001 0.03 0.0372 0.8828000000000001 0.05000000000000001 0.03 0.0372 0.8736000000000002 0.05000000000000001 0.03 0.0464 0.8644000000000001 0.05 0.03 0.0556 0.8644000000000001 0.05 0.03 0.0556 0.8552000000000002 0.05 0.03000000000000001 0.06480000000000001 0.8460000000000001 0.05 0.03 0.074 0.8368000000000001 0.05 0.03 0.08320000000000001 0.8184 0.05 0.03 0.1016 0.8092 0.05 0.03 0.1108 0.8046 0.05 0.03 0.1154 0.8046 0.05 0.03 0.1154 0.8328000000000001 0.1 0.03 0.0372 0.8328000000000001 0.1 0.03 0.0372 0.8236000000000001 0.1 0.03 0.0464 0.8144 0.1 0.03 0.0556 0.8144 0.1 0.03 0.0556 0.8052000000000001 0.1 0.03000000000000001 0.06480000000000001 0.796 0.1 0.03 0.074 0.7867999999999999 0.1 0.03 0.08320000000000001 0.7684000000000001 0.1 0.03 0.1016 0.7592000000000001 0.1 0.03 0.1108 0.7546000000000001 0.1 0.03 0.1154 0.7546000000000001 0.1 0.03 0.1154 0.8328000000000001 0.1 0.03 0.0372 0.8328000000000001 0.1 0.03 0.0372 0.8236000000000001 0.1 0.03 0.0464 0.8144 0.1 0.03 0.0556 0.8144 0.1 0.03 0.0556 0.8052000000000001 0.1 0.03000000000000001 0.06480000000000001 0.796 0.1 0.03 0.074 0.7867999999999999 0.1 0.03 0.08320000000000001 0.7684000000000001 0.1 0.03 0.1016 0.7592000000000001 0.1 0.03 0.1108 0.7546000000000001 0.1 0.03 0.1154 0.7546000000000001 0.1 0.03 0.1154 0.7328 0.1 0.05000000000000001 0.1172 0.7328 0.1 0.05000000000000001 0.1172 0.7236 0.1 0.05000000000000001 0.1264 0.7144 0.1 0.05 0.1356 0.7144 0.1 0.05 0.1356 0.7052000000000001 0.1 0.05 0.1448 0.6960000000000001 0.1 0.05 0.154 0.6868000000000001 0.1 0.05 0.1632 0.6684000000000001 0.1 0.05 0.1816 0.6592 0.1 0.05 0.1908 0.6546 0.1 0.05 0.1954 0.6546 0.1 0.05 0.1954 0.7328 0.1 0.05000000000000001 0.1172 0.7328 0.1 0.05000000000000001 0.1172 0.7236 0.1 0.05000000000000001 0.1264 0.7144 0.1 0.05 0.1356 0.7144 0.1 0.05 0.1356 0.7052000000000001 0.1 0.05 0.1448 0.6960000000000001 0.1 0.05 0.154 0.6868000000000001 0.1 0.05 0.1632 0.6684000000000001 0.1 0.05 0.1816 0.6592 0.1 0.05 0.1908 0.6546 0.1 0.05 0.1954 0.6546 0.1 0.05 0.1954 0.8328000000000001 0.1 0.03 0.0372 0.8328000000000001 0.1 0.03 0.0372 0.8236000000000001 0.1 0.03 0.0464 0.8144 0.1 0.03 0.0556 0.8144 0.1 0.03 0.0556 0.8052000000000001 0.1 0.03000000000000001 0.06480000000000001 0.796 0.1 0.03 0.074 0.7867999999999999 0.1 0.03 0.08320000000000001 0.7684000000000001 0.1 0.03 0.1016 0.7592000000000001 0.1 0.03 0.1108 0.7546000000000001 0.1 0.03 0.1154 0.7546000000000001 0.1 0.03 0.1154 0.8328000000000001 0.1 0.03 0.0372 0.8328000000000001 0.1 0.03 0.0372 0.8236000000000001 0.1 0.03 0.0464 0.8144 0.1 0.03 0.0556 0.8144 0.1 0.03 0.0556 0.8052000000000001 0.1 0.03000000000000001 0.06480000000000001 0.796 0.1 0.03 0.074 0.7867999999999999 0.1 0.03 0.08320000000000001 0.7684000000000001 0.1 0.03 0.1016 0.7592000000000001 0.1 0.03 0.1108 0.7546000000000001 0.1 0.03 0.1154 0.7546000000000001 0.1 0.03 0.1154 0.8328000000000001 0.05000000000000001 0.05000000000000001 0.06720000000000001 0.8328000000000001 0.05000000000000001 0.05000000000000001 0.06720000000000001 0.8236000000000001 0.05000000000000001 0.05000000000000001 0.07640000000000001 0.8144 0.05 0.05 0.08560000000000001 0.8144 0.05 0.05 0.08560000000000001 0.8052000000000001 0.05 0.05 0.09480000000000001 0.796 0.05 0.05 0.104 0.7867999999999999 0.05 0.05 0.1132 0.7684000000000001 0.05 0.05 0.1316 0.7592000000000001 0.05 0.05 0.1408 0.7546000000000001 0.05 0.05 0.1454 0.7546000000000001 0.05 0.05 0.1454 0.8328000000000001 0.05000000000000001 0.05000000000000001 0.06720000000000001 0.8328000000000001 0.05000000000000001 0.05000000000000001 0.06720000000000001 0.8236000000000001 0.05000000000000001 0.05000000000000001 0.07640000000000001 0.8144 0.05 0.05 0.08560000000000001 0.8144 0.05 0.05 0.08560000000000001 0.8052000000000001 0.05 0.05 0.09480000000000001 0.796 0.05 0.05 0.104 0.7867999999999999 0.05 0.05 0.1132 0.7684000000000001 0.05 0.05 0.1316 0.7592000000000001 0.05 0.05 0.1408 0.7546000000000001 0.05 0.05 0.1454 0.7546000000000001 0.05 0.05 0.1454 0.6328 0.2 0.1 0.06720000000000001 0.6328 0.2 0.1 0.06720000000000001 0.6236000000000002 0.2 0.1 0.07640000000000001 0.6144000000000001 0.2 0.1 0.08560000000000001 0.6144000000000001 0.2 0.1 0.08560000000000001 0.6052000000000002 0.2 0.1 0.09480000000000001 0.5960000000000001 0.2 0.1 0.104 0.5868000000000001 0.2 0.1 0.1132 0.5684000000000001 0.2 0.1 0.1316 0.5592 0.2 0.1 0.1408 0.5546000000000001 0.2 0.1 0.1454 0.5546000000000001 0.2 0.1 0.1454 0.6328 0.2 0.1 0.06720000000000001 0.6328 0.2 0.1 0.06720000000000001 0.6236000000000002 0.2 0.1 0.07640000000000001 0.6144000000000001 0.2 0.1 0.08560000000000001 0.6144000000000001 0.2 0.1 0.08560000000000001 0.6052000000000002 0.2 0.1 0.09480000000000001 0.5960000000000001 0.2 0.1 0.104 0.5868000000000001 0.2 0.1 0.1132 0.5684000000000001 0.2 0.1 0.1316 0.5592 0.2 0.1 0.1408 0.5546000000000001 0.2 0.1 0.1454 0.5546000000000001 0.2 0.1 0.1454 0.5328000000000001 0.15 0.15 0.1672 0.5328000000000001 0.15 0.15 0.1672 0.5236000000000001 0.15 0.15 0.1764 0.5144 0.15 0.15 0.1856 0.5144 0.15 0.15 0.1856 0.5052000000000001 0.15 0.15 0.1948 0.4960000000000001 0.15 0.15 0.204 0.4868 0.15 0.15 0.2132 0.4684 0.15 0.15 0.2316 0.4592000000000001 0.15 0.15 0.2408 0.4546 0.15 0.15 0.2454 0.4546 0.15 0.15 0.2454 0.5328000000000001 0.15 0.15 0.1672 0.5328000000000001 0.15 0.15 0.1672 0.5236000000000001 0.15 0.15 0.1764 0.5144 0.15 0.15 0.1856 0.5144 0.15 0.15 0.1856 0.5052000000000001 0.15 0.15 0.1948 0.4960000000000001 0.15 0.15 0.204 0.4868 0.15 0.15 0.2132 0.4684 0.15 0.15 0.2316 0.4592000000000001 0.15 0.15 0.2408 0.4546 0.15 0.15 0.2454 0.4546 0.15 0.15 0.2454 0.6328 0.2 0.1 0.06720000000000001 0.6328 0.2 0.1 0.06720000000000001 0.6236000000000002 0.2 0.1 0.07640000000000001 0.6144000000000001 0.2 0.1 0.08560000000000001 0.6144000000000001 0.2 0.1 0.08560000000000001 0.6052000000000002 0.2 0.1 0.09480000000000001 0.5960000000000001 0.2 0.1 0.104 0.5868000000000001 0.2 0.1 0.1132 0.5684000000000001 0.2 0.1 0.1316 0.5592 0.2 0.1 0.1408 0.5546000000000001 0.2 0.1 0.1454 0.5546000000000001 0.2 0.1 0.1454 0.6328 0.2 0.1 0.06720000000000001 0.6328 0.2 0.1 0.06720000000000001 0.6236000000000002 0.2 0.1 0.07640000000000001 0.6144000000000001 0.2 0.1 0.08560000000000001 0.6144000000000001 0.2 0.1 0.08560000000000001 0.6052000000000002 0.2 0.1 0.09480000000000001 0.5960000000000001 0.2 0.1 0.104 0.5868000000000001 0.2 0.1 0.1132 0.5684000000000001 0.2 0.1 0.1316 0.5592 0.2 0.1 0.1408 0.5546000000000001 0.2 0.1 0.1454 0.5546000000000001 0.2 0.1 0.1454 0.7328 0.15 0.05000000000000001 0.06720000000000001 0.7328 0.15 0.05000000000000001 0.06720000000000001 0.7236 0.15 0.05000000000000001 0.07640000000000001 0.7144 0.15 0.05 0.08560000000000001 0.7144 0.15 0.05 0.08560000000000001 0.7052000000000001 0.15 0.05 0.09480000000000001 0.6960000000000001 0.15 0.05 0.104 0.6868000000000001 0.15 0.05 0.1132 0.6684000000000001 0.15 0.05 0.1316 0.6592 0.15 0.05 0.1408 0.6546 0.15 0.05 0.1454 0.6546 0.15 0.05 0.1454 0.7328 0.15 0.05000000000000001 0.06720000000000001 0.7328 0.15 0.05000000000000001 0.06720000000000001 0.7236 0.15 0.05000000000000001 0.07640000000000001 0.7144 0.15 0.05 0.08560000000000001 0.7144 0.15 0.05 0.08560000000000001 0.7052000000000001 0.15 0.05 0.09480000000000001 0.6960000000000001 0.15 0.05 0.104 0.6868000000000001 0.15 0.05 0.1132 0.6684000000000001 0.15 0.05 0.1316 0.6592 0.15 0.05 0.1408 0.6546 0.15 0.05 0.1454 0.6546 0.15 0.05 0.1454 0.4328000000000001 0.2 0.15 0.2172 0.4328000000000001 0.2 0.15 0.2172 0.4236 0.2 0.15 0.2264000000000001 0.4144 0.2 0.15 0.2356 0.4144 0.2 0.15 0.2356 0.4052000000000001 0.2 0.15 0.2448 0.396 0.2 0.15 0.254 0.3868 0.2 0.15 0.2632 0.3684000000000001 0.2 0.15 0.2816 0.3592 0.2 0.15 0.2908 0.3546 0.2 0.15 0.2953999999999999 0.3546 0.2 0.15 0.2953999999999999 0.4328000000000001 0.2 0.15 0.2172 0.4328000000000001 0.2 0.15 0.2172 0.4236 0.2 0.15 0.2264000000000001 0.4144 0.2 0.15 0.2356 0.4144 0.2 0.15 0.2356 0.4052000000000001 0.2 0.15 0.2448 0.396 0.2 0.15 0.254 0.3868 0.2 0.15 0.2632 0.3684000000000001 0.2 0.15 0.2816 0.3592 0.2 0.15 0.2908 0.3546 0.2 0.15 0.2953999999999999 0.3546 0.2 0.15 0.2953999999999999 0.4328000000000001 0.2 0.2 0.1672 0.4328000000000001 0.2 0.2 0.1672 0.4236 0.2 0.2 0.1764 0.4144 0.2 0.2 0.1856 0.4144 0.2 0.2 0.1856 0.4052000000000001 0.2 0.2 0.1948 0.396 0.2 0.2 0.204 0.3868 0.2 0.2 0.2132 0.3684000000000001 0.2 0.2 0.2316 0.3592 0.2 0.2 0.2408 0.3546 0.2 0.2 0.2454 0.3546 0.2 0.2 0.2454 0.4328000000000001 0.2 0.2 0.1672 0.4328000000000001 0.2 0.2 0.1672 0.4236 0.2 0.2 0.1764 0.4144 0.2 0.2 0.1856 0.4144 0.2 0.2 0.1856 0.4052000000000001 0.2 0.2 0.1948 0.396 0.2 0.2 0.204 0.3868 0.2 0.2 0.2132 0.3684000000000001 0.2 0.2 0.2316 0.3592 0.2 0.2 0.2408 0.3546 0.2 0.2 0.2454 0.3546 0.2 0.2 0.2454 0.4828000000000001 0.25 0.1 0.1672 0.4828000000000001 0.25 0.1 0.1672 0.4736000000000001 0.25 0.1 0.1764 0.4644 0.25 0.1 0.1856 0.4644 0.25 0.1 0.1856 0.4552000000000001 0.25 0.1 0.1948 0.4460000000000001 0.25 0.1 0.204 0.4368000000000001 0.25 0.1 0.2132 0.4184000000000001 0.25 0.1 0.2316 0.4092 0.25 0.1 0.2408 0.4046 0.25 0.1 0.2454 0.4046 0.25 0.1 0.2454 0.4828000000000001 0.25 0.1 0.1672 0.4828000000000001 0.25 0.1 0.1672 0.4736000000000001 0.25 0.1 0.1764 0.4644 0.25 0.1 0.1856 0.4644 0.25 0.1 0.1856 0.4552000000000001 0.25 0.1 0.1948 0.4460000000000001 0.25 0.1 0.204 0.4368000000000001 0.25 0.1 0.2132 0.4184000000000001 0.25 0.1 0.2316 0.4092 0.25 0.1 0.2408 0.4046 0.25 0.1 0.2454 0.4046 0.25 0.1 0.2454 0.6328 0.2 0.1 0.06720000000000001 0.6328 0.2 0.1 0.06720000000000001 0.6236000000000002 0.2 0.1 0.07640000000000001 0.6144000000000001 0.2 0.1 0.08560000000000001 0.6144000000000001 0.2 0.1 0.08560000000000001 0.6052000000000002 0.2 0.1 0.09480000000000001 0.5960000000000001 0.2 0.1 0.104 0.5868000000000001 0.2 0.1 0.1132 0.5684000000000001 0.2 0.1 0.1316 0.5592 0.2 0.1 0.1408 0.5546000000000001 0.2 0.1 0.1454 0.5546000000000001 0.2 0.1 0.1454 0.6328 0.2 0.1 0.06720000000000001 0.6328 0.2 0.1 0.06720000000000001 0.6236000000000002 0.2 0.1 0.07640000000000001 0.6144000000000001 0.2 0.1 0.08560000000000001 0.6144000000000001 0.2 0.1 0.08560000000000001 0.6052000000000002 0.2 0.1 0.09480000000000001 0.5960000000000001 0.2 0.1 0.104 0.5868000000000001 0.2 0.1 0.1132 0.5684000000000001 0.2 0.1 0.1316 0.5592 0.2 0.1 0.1408 0.5546000000000001 0.2 0.1 0.1454 0.5546000000000001 0.2 0.1 0.1454 0.4328000000000001 0.2 0.15 0.2172 0.4328000000000001 0.2 0.15 0.2172 0.4236 0.2 0.15 0.2264000000000001 0.4144 0.2 0.15 0.2356 0.4144 0.2 0.15 0.2356 0.4052000000000001 0.2 0.15 0.2448 0.396 0.2 0.15 0.254 0.3868 0.2 0.15 0.2632 0.3684000000000001 0.2 0.15 0.2816 0.3592 0.2 0.15 0.2908 0.3546 0.2 0.15 0.2953999999999999 0.3546 0.2 0.15 0.2953999999999999 0.4328000000000001 0.2 0.15 0.2172 0.4328000000000001 0.2 0.15 0.2172 0.4236 0.2 0.15 0.2264000000000001 0.4144 0.2 0.15 0.2356 0.4144 0.2 0.15 0.2356 0.4052000000000001 0.2 0.15 0.2448 0.396 0.2 0.15 0.254 0.3868 0.2 0.15 0.2632 0.3684000000000001 0.2 0.15 0.2816 0.3592 0.2 0.15 0.2908 0.3546 0.2 0.15 0.2953999999999999 0.3546 0.2 0.15 0.2953999999999999 0.4328000000000001 0.2 0.2 0.1672 0.4328000000000001 0.2 0.2 0.1672 0.4236 0.2 0.2 0.1764 0.4144 0.2 0.2 0.1856 0.4144 0.2 0.2 0.1856 0.4052000000000001 0.2 0.2 0.1948 0.396 0.2 0.2 0.204 0.3868 0.2 0.2 0.2132 0.3684000000000001 0.2 0.2 0.2316 0.3592 0.2 0.2 0.2408 0.3546 0.2 0.2 0.2454 0.3546 0.2 0.2 0.2454 0.4328000000000001 0.2 0.2 0.1672 0.4328000000000001 0.2 0.2 0.1672 0.4236 0.2 0.2 0.1764 0.4144 0.2 0.2 0.1856 0.4144 0.2 0.2 0.1856 0.4052000000000001 0.2 0.2 0.1948 0.396 0.2 0.2 0.204 0.3868 0.2 0.2 0.2132 0.3684000000000001 0.2 0.2 0.2316 0.3592 0.2 0.2 0.2408 0.3546 0.2 0.2 0.2454 0.3546 0.2 0.2 0.2454 0.4828000000000001 0.25 0.1 0.1672 0.4828000000000001 0.25 0.1 0.1672 0.4736000000000001 0.25 0.1 0.1764 0.4644 0.25 0.1 0.1856 0.4644 0.25 0.1 0.1856 0.4552000000000001 0.25 0.1 0.1948 0.4460000000000001 0.25 0.1 0.204 0.4368000000000001 0.25 0.1 0.2132 0.4184000000000001 0.25 0.1 0.2316 0.4092 0.25 0.1 0.2408 0.4046 0.25 0.1 0.2454 0.4046 0.25 0.1 0.2454 0.4828000000000001 0.25 0.1 0.1672 0.4828000000000001 0.25 0.1 0.1672 0.4736000000000001 0.25 0.1 0.1764 0.4644 0.25 0.1 0.1856 0.4644 0.25 0.1 0.1856 0.4552000000000001 0.25 0.1 0.1948 0.4460000000000001 0.25 0.1 0.204 0.4368000000000001 0.25 0.1 0.2132 0.4184000000000001 0.25 0.1 0.2316 0.4092 0.25 0.1 0.2408 0.4046 0.25 0.1 0.2454 0.4046 0.25 0.1 0.2454 0.6328 0.2 0.1 0.06720000000000001 0.6328 0.2 0.1 0.06720000000000001 0.6236000000000002 0.2 0.1 0.07640000000000001 0.6144000000000001 0.2 0.1 0.08560000000000001 0.6144000000000001 0.2 0.1 0.08560000000000001 0.6052000000000002 0.2 0.1 0.09480000000000001 0.5960000000000001 0.2 0.1 0.104 0.5868000000000001 0.2 0.1 0.1132 0.5684000000000001 0.2 0.1 0.1316 0.5592 0.2 0.1 0.1408 0.5546000000000001 0.2 0.1 0.1454 0.5546000000000001 0.2 0.1 0.1454 0.6328 0.2 0.1 0.06720000000000001 0.6328 0.2 0.1 0.06720000000000001 0.6236000000000002 0.2 0.1 0.07640000000000001 0.6144000000000001 0.2 0.1 0.08560000000000001 0.6144000000000001 0.2 0.1 0.08560000000000001 0.6052000000000002 0.2 0.1 0.09480000000000001 0.5960000000000001 0.2 0.1 0.104 0.5868000000000001 0.2 0.1 0.1132 0.5684000000000001 0.2 0.1 0.1316 0.5592 0.2 0.1 0.1408 0.5546000000000001 0.2 0.1 0.1454 0.5546000000000001 0.2 0.1 0.1454 0.9500000000000001 0.03 0 0.02 0.9500000000000001 0.03 0 0.02 0.9500000000000001 0.03 0 0.02 0.95 0.03 0 0.02 0.95 0.03 0 0.02 0.95 0.03000000000000001 0 0.02 0.95 0.03 0 0.02 0.95 0.03 0 0.02 0.95 0.03 0 0.02 0.9500000000000001 0.03 0 0.02 0.9499999999999998 0.03 0 0.02 0.9499999999999998 0.03 0 0.02 0.9500000000000001 0.03 0 0.02 0.9500000000000001 0.03 0 0.02 0.9500000000000001 0.03 0 0.02 0.95 0.03 0 0.02 0.95 0.03 0 0.02 0.95 0.03000000000000001 0 0.02 0.95 0.03 0 0.02 0.95 0.03 0 0.02 0.95 0.03 0 0.02 0.9500000000000001 0.03 0 0.02 0.9499999999999998 0.03 0 0.02 0.9499999999999998 0.03 0 0.02 0.8000000000000002 0.1 0 0.1 0.8000000000000002 0.1 0 0.1 0.8000000000000002 0.1 0 0.1 0.8 0.1 0 0.1 0.8 0.1 0 0.1 0.8 0.1 0 0.1 0.8 0.1 0 0.1 0.8 0.1 0 0.1 0.8 0.1 0 0.1 0.8 0.1 0 0.1 0.8 0.1 0 0.1 0.8 0.1 0 0.1 0.8000000000000002 0.1 0 0.1 0.8000000000000002 0.1 0 0.1 0.8000000000000002 0.1 0 0.1 0.8 0.1 0 0.1 0.8 0.1 0 0.1 0.8 0.1 0 0.1 0.8 0.1 0 0.1 0.8 0.1 0 0.1 0.8 0.1 0 0.1 0.8 0.1 0 0.1 0.8 0.1 0 0.1 0.8 0.1 0 0.1 0.9500000000000001 0.03 0 0.02 0.9500000000000001 0.03 0 0.02 0.9500000000000001 0.03 0 0.02 0.95 0.03 0 0.02 0.95 0.03 0 0.02 0.95 0.03000000000000001 0 0.02 0.95 0.03 0 0.02 0.95 0.03 0 0.02 0.95 0.03 0 0.02 0.9500000000000001 0.03 0 0.02 0.9499999999999998 0.03 0 0.02 0.9499999999999998 0.03 0 0.02 0.9500000000000001 0.03 0 0.02 0.9500000000000001 0.03 0 0.02 0.9500000000000001 0.03 0 0.02 0.95 0.03 0 0.02 0.95 0.03 0 0.02 0.95 0.03000000000000001 0 0.02 0.95 0.03 0 0.02 0.95 0.03 0 0.02 0.95 0.03 0 0.02 0.9500000000000001 0.03 0 0.02 0.9499999999999998 0.03 0 0.02 0.9499999999999998 0.03 0 0.02 0.9000000000000001 0.05000000000000001 0 0.05000000000000001 0.9000000000000001 0.05000000000000001 0 0.05000000000000001 0.9000000000000001 0.05000000000000001 0 0.05000000000000001 0.9 0.05 0 0.05 0.9 0.05 0 0.05 0.9000000000000001 0.05 0 0.05 0.9000000000000001 0.05 0 0.05 0.9 0.05 0 0.05 0.9000000000000001 0.05 0 0.05 0.9 0.05 0 0.05 0.9 0.05 0 0.05 0.9 0.05 0 0.05 0.9000000000000001 0.05000000000000001 0 0.05000000000000001 0.9000000000000001 0.05000000000000001 0 0.05000000000000001 0.9000000000000001 0.05000000000000001 0 0.05000000000000001 0.9 0.05 0 0.05 0.9 0.05 0 0.05 0.9000000000000001 0.05 0 0.05 0.9000000000000001 0.05 0 0.05 0.9 0.05 0 0.05 0.9000000000000001 0.05 0 0.05 0.9 0.05 0 0.05 0.9 0.05 0 0.05 0.9 0.05 0 0.05 0.9000000000000001 0.1 0 0 0.9000000000000001 0.1 0 0 0.9000000000000001 0.1 0 0 0.9 0.1 0 0 0.9 0.1 0 0 0.9000000000000001 0.1 0 0 0.9000000000000001 0.1 0 0 0.9 0.1 0 0 0.9000000000000001 0.1 0 0 0.9 0.1 0 0 0.9 0.1 0 0 0.9 0.1 0 0 0.9000000000000001 0.1 0 0 0.9000000000000001 0.1 0 0 0.9000000000000001 0.1 0 0 0.9 0.1 0 0 0.9 0.1 0 0 0.9000000000000001 0.1 0 0 0.9000000000000001 0.1 0 0 0.9 0.1 0 0 0.9000000000000001 0.1 0 0 0.9 0.1 0 0 0.9 0.1 0 0 0.9 0.1 0 0 0.75 0.1 0 0.15 0.75 0.1 0 0.15 0.75 0.1 0 0.15 0.75 0.1 0 0.15 0.75 0.1 0 0.15 0.7500000000000001 0.1 0 0.15 0.75 0.1 0 0.15 0.75 0.1 0 0.15 0.7500000000000001 0.1 0 0.15 0.75 0.1 0 0.15 0.75 0.1 0 0.15 0.75 0.1 0 0.15 0.75 0.1 0 0.15 0.75 0.1 0 0.15 0.75 0.1 0 0.15 0.75 0.1 0 0.15 0.75 0.1 0 0.15 0.7500000000000001 0.1 0 0.15 0.75 0.1 0 0.15 0.75 0.1 0 0.15 0.7500000000000001 0.1 0 0.15 0.75 0.1 0 0.15 0.75 0.1 0 0.15 0.75 0.1 0 0.15 0.9000000000000001 0.1 0 0 0.9000000000000001 0.1 0 0 0.9000000000000001 0.1 0 0 0.9 0.1 0 0 